tree
version=v4
num_class=1
num_tree_per_iteration=1
label_index=0
max_feature_idx=14
objective=binary sigmoid:1
feature_names=PPI Glu Hb AKI_Grade Gender Transfusion UA ADA TP EOS ALB Na CRP LDH ALT
feature_infos=[0:1] [0:40.200000000000003] [0:215] [0:3] [0:1] [0:1] [10:1321] [1:506] [12.859999999999999:102.90000000000001] [-0.20000000000000001:8.25] [9.0500000000000007:54.399999999999999] [37:192] [-43.890000000000001:264.19] [0:14230] [-14:17780]
tree_sizes=2396 2495 2709 1773 1977 1364 1774 1368 2278 1885 1997 1267 1776 1983 2306 1876 1882 1580 3003 1572 1470 2494 2198 2505 1267 1267 2296 1574 1894 1261 1886 1057 1889 2611 1461 2602 2795 955 1573 1267 2813 1791 1476 2200 1063 2298 1887 1783 2104 2706 867 2776 1164 1577 2906 2206 2297 1872 1175 2314 2491 1584 2905 1678 2098 1384 2506 2111 2198 1697 2213 2607 947 1797 1899 2300 2314 1799 977 2512 969 2405 1897 1900 1596 2643 2229 1591 1174 1807 1387 2544 1176 2338 875 1701 2119 1809 2015 1905 2317 1071 2535 2227 2017 1382 1490 2132 1087 1289 1701 1396 2526 1483 2434 2451 2334 2013 2524 2117 2239 2545 2132 2664 2429 1293 2332 2332 1829 2443 2230 2013 2033 3055 2129 2124 2877 2126 1609 1201 2891 1709 1934 1502 1719 1924 1405 2143 1284 2138 2867 2049 1944 2766 1926 1200 2880 2265 1300 2575 1524 2483 2044 2459 2262 1962 2569 1622 1841 1194 1608 1845 2050 985 2055 1521 2047 2159 883 2272 2273 1953 2138 1933 2482 2267 2377 1430 2160 1628 776 2571 1200 1853 1839 1723 1956 2604 2063 2706 2699 2283 2276 1851 2701 1852 1971 2718 1429 1529 2175 1954 1426 1206 1635 2179 984 2392 2272 1637 1743 2603 2511 2185 2409 1753 2403 1101 1749 2077 2398 2942 2176 2178 2396 1842 1758 1756 2961 2632 1962 1640 1105 1862 2079 2944 2074 2608 1553 1216 1548 1877 1872 1776 2283 893 2642 1117 2092 2199 2409 1651 1871 2210 2639 3189 901 1766 1332 1227 2320 2435 2427 2533 2643 1877 2321 1979 902 1775 2099 1012 1121 2559 2640 1897 1227 2962 2020 1688 1781 1341 1122 2127 2328 1784 2765 2438 2334 2225 2461 2644 2221 2223 1007 2341 1669 1462 2223 3106 1337 2241 1675 2002 2781 2791 1459 2662 2009 1564 2785 1344 1245 2002 2569 2768 2351 2004 1131 1357 2574 1682 1579 1361 2237 2017 2767 2903 3236 1805 2590 2027 915 2012 1911 2354 2900 1361 1460 1258 2463 2467 1362 1345 1809 1910 2473 1687 2026 2587 2242 1471 1249 1810 2032 1249 1365 1809 916 2827 916 2137 2257 916 2048 2369 1693 1144 1708 2484 1820 2155 2469 1919 2484 2494 1827 1814 1367 2382 1819 1145 2272 2829 1704 1930 2044 1480 1362 1821 1138 2039 1943 1578 1695 1259 1821 1593 2375 1257 1367 1145 1815 1813 1596 2054 1481 1257 1139 1704 1716 922 1706 1707 921 1812 1267 2274 1594 1721 1940 804 1145 1819 2274 1710 1376 2051 1591 1254 1259 1031 1042 1374 2042 1373 1377 1707 1603 1146 1708 1593 1491 1369 923 2049 1380 1268 1040 920 1148 1605 1147 1719 1144 1717 1382 1265 1599 1149 1828 1714 1037 1377 1037 921 1387 815 1266 1263 1492 1269 1382 1605 1377 1151 1262 1267 1037 1386 1267 928 1145 926 1482 1043 928 1260 930 1252

Tree=0
num_leaves=22
num_cat=0
split_feature=0 3 2 14 2 5 11 8 10 1 10 1 1 14 12 1 11 5 14 12 6
split_gain=116.42 45.7069 63.0151 30.8409 22.5074 21.0415 17.7393 14.8565 20.8517 14.259 12.1293 10.5773 13.2427 8.49511 10.9669 6.32186 5.22234 4.8085 6.08997 7.75466 2.22003
threshold=1.0000000180025095e-35 1.0000000180025095e-35 121.50000000000001 73.500000000000014 53.500000000000007 1.0000000180025095e-35 141.05000000000004 52.620000000000012 41.105000000000011 4.4350000000000014 36.710000000000008 4.1550000000000011 5.3850000000000007 76.500000000000014 0.50500000000000012 4.7150000000000007 139.41000000000003 1.0000000180025095e-35 102.50000000000001 14.465000000000002 163.50000000000003
decision_type=2 2 2 2 2 2 2 2 2 2 2 2 2 2 2 2 2 2 2 2 2
left_child=3 2 5 4 -1 10 11 15 -9 -7 -2 16 -13 14 -4 -6 -5 18 19 -3 -19
right_child=1 17 13 6 7 9 -8 8 -10 -11 -12 12 -14 -15 -16 -17 -18 20 -20 -21 -22
leaf_value=0.31554017992753969 0.10930513147934785 0.053947170196534694 -0.13005827975911094 0.075388916089069058 0.015584735415151641 0.32396424096040388 -0.59999999610889565 -0.50851819812924559 -0.199648703059328 0.10473095339270364 -0.13666495139001833 -0.36368457317924263 0.20782443239930112 0.057425747621999972 -0.47254158601013568 -0.39503691591726031 0.40486647336965098 0.30658576238349028 0.47789920856190066 0.38034116167305093 0.51988025620975309
leaf_weight=5.0377102494239798 41.615725129842758 14.10580660402775 13.740249812602995 8.1947915554046649 13.486375808715822 51.914511203765869 3.7318389862775794 50.416872322559357 32.257253527641296 54.97516393661499 31.854105964303017 7.8068982064723951 6.8513295203447342 5.6124679297208777 21.71167579293251 4.5005433410406104 9.1797791421413404 6.1049617230892208 10.269367173314093 12.232260003685949 15.65029765665531
leaf_count=13 146 53 63 30 53 132 25 317 158 194 147 44 21 21 133 26 20 16 19 28 26
internal_value=3.8911e-09 0.112143 0.0498913 -0.221797 -0.303278 0.126256 0.0190105 -0.334248 -0.388006 0.211209 0.00266058 0.0911256 -0.0965584 -0.285513 -0.339804 -0.0871577 0.249467 0.348324 0.281941 0.205535 0.460026
internal_weight=0 279.787 221.424 141.463 105.699 180.36 35.7646 100.661 82.6741 106.89 73.4698 32.0328 14.6582 41.0644 35.4519 17.9869 17.3746 58.3627 36.6074 26.3381 21.7553
internal_count=1685 978 836 707 567 619 140 554 475 326 293 115 65 217 196 79 50 142 100 81 42
is_linear=0
shrinkage=1


Tree=1
num_leaves=23
num_cat=0
split_feature=0 8 11 4 7 14 12 2 1 8 10 1 13 12 9 3 8 10 10 7 6 6
split_gain=59.5398 25.7689 20.1047 16.9819 17.0695 15.915 18.1671 11.121 13.8084 12.4261 9.95708 9.66708 11.2126 9.13743 8.61939 8.5546 10.9244 8.55152 11.9712 6.32989 5.52461 3.09999
threshold=1.0000000180025095e-35 63.605000000000011 140.94000000000003 1.0000000180025095e-35 27.500000000000004 73.500000000000014 154.00500000000002 117.50000000000001 4.6850000000000014 53.095000000000006 45.210000000000008 3.7550000000000003 357.50000000000006 6.3800000000000008 0.085000000000000006 1.0000000180025095e-35 60.110000000000007 26.450000000000003 41.105000000000011 20.500000000000004 257.50000000000006 185.50000000000003
decision_type=2 2 2 2 2 2 2 2 2 2 2 2 2 2 2 2 2 2 2 2 2 2
left_child=5 7 3 4 -3 6 17 8 20 -10 13 -7 21 -4 -5 16 -9 -1 -19 -14 -2 -13
right_child=1 2 10 14 -6 11 -8 15 9 -11 -12 12 19 -15 -16 -17 -18 18 -20 -21 -22 -23
leaf_value=0.030525899928250937 0.19275390032950412 -0.34919423283912071 -0.58084070405992028 0.22452983019136732 0.22276500612720196 0.22814423472309214 0.43586217799257165 0.02468079426127217 0.23290892716087142 -0.03954981923175787 0.061228175440684922 -0.18765401008512292 0.24994522743435563 -0.15178672131668092 -0.055653897073553775 0.22003666181709688 -0.4288487346810213 -0.35862484055240801 -0.13095539191476441 -0.15773314288758269 0.34524533443220679 -0.54596325279048186
leaf_weight=9.1219353526830655 51.034552320837975 15.856790989637377 10.267854049801832 31.933628976345062 6.6719957143068305 12.223398625850676 3.6456134021282187 15.213949769735342 25.508649706840515 36.797624245285988 5.668761119246482 4.2667805701494235 7.5413428843021375 7.9077147096395484 14.309865623712538 9.6922575086355192 6.9698797464370719 56.210070878267288 32.982702240347862 6.2838582992553711 36.800967335700989 4.4287813603878021
leaf_count=37 149 92 70 93 20 34 9 62 70 149 22 21 23 38 61 26 44 360 161 31 82 31
internal_value=0 0.0802998 -0.0485263 0.0337758 -0.179806 -0.162002 -0.221754 0.145851 0.180019 0.0719968 -0.285904 0.0133495 -0.103233 -0.394171 0.137828 -0.0150859 -0.117812 -0.24614 -0.274435 0.0646464 0.256644 -0.370146
internal_weight=0 274.634 92.6166 68.7723 22.5288 136.704 101.96 182.018 150.142 62.3063 23.8443 34.7442 22.5208 18.1756 46.2435 31.8761 22.1838 98.3147 89.1928 13.8252 87.8355 8.69556
internal_count=1685 978 396 266 112 707 567 582 450 219 130 140 106 108 154 132 106 558 521 54 231 52
is_linear=0
shrinkage=0.3


Tree=2
num_leaves=25
num_cat=0
split_feature=0 3 5 2 6 13 7 7 4 9 8 10 2 11 7 14 13 5 1 1 6 10 12 8
split_gain=31.4475 20.2676 23.4908 17.9063 10.7534 10.4725 9.48465 15.3731 11.6193 8.63785 8.44219 12.062 6.53317 6.50089 6.46728 3.99695 3.61238 2.65787 3.72026 3.61161 1.35635 0.119809 0.0959523 0.0318996
threshold=1.0000000180025095e-35 1.0000000180025095e-35 1.0000000180025095e-35 137.50000000000003 249.50000000000003 160.50000000000003 15.500000000000002 37.500000000000007 1.0000000180025095e-35 0.065000000000000016 55.310000000000009 35.220000000000006 110.50000000000001 140.70500000000001 17.500000000000004 11.500000000000002 592.00000000000011 1.0000000180025095e-35 3.7250000000000005 4.4250000000000007 200.50000000000003 39.205000000000005 0.52500000000000013 60.710000000000008
decision_type=2 2 2 2 2 2 2 2 2 2 2 2 2 2 2 2 2 2 2 2 2 2 2 2
left_child=5 2 3 4 -2 15 8 14 12 -10 13 -12 -7 -4 -8 -1 -9 18 -3 -20 -19 23 -5 -17
right_child=1 17 10 22 -6 6 7 16 9 -11 11 -13 -14 -15 -16 21 -18 20 19 -21 -22 -23 -24 -25
leaf_value=-0.11486189745918809 -0.14856438836969438 -0.26356028232983575 0.32649714018817083 -0.54306743793188827 0.056497348968653618 -0.38057908908698285 -0.49808326564089939 -0.03885779558341166 0.1926710134471486 -0.12197270742311765 -0.22127878487403443 0.10721188529762712 -0.019999345892734211 0.040333702424786934 -0.20421573427761483 -0.47364239448554279 0.26996233146135085 0.21005096697959233 0.32043667648459401 0.11577675670103058 0.37265732535402196 -0.52020440225949793 -0.47796890377653234 -0.43173741894643147
leaf_weight=3.9778295606374732 47.855522118508816 1.6777050495147694 23.010607972741127 3.3388169258832914 44.340462259948254 8.9619467183947581 8.1392474174499494 7.2542439028620702 25.329770386219025 11.380684554576872 11.857557728886603 66.380027070641518 9.1289955601096135 10.362178802490233 39.206144213676453 2.7626699358224851 6.4311903417110443 7.4654505401849773 12.607293277978895 20.184916660189629 12.099126294255255 3.0815639793872833 5.2294505685567856 4.0051082521677017
leaf_count=21 229 8 50 23 177 63 60 36 96 61 57 225 45 36 228 21 22 20 28 64 22 22 39 32
internal_value=0 0.0582491 0.016511 -0.0884959 -0.0499426 -0.121896 -0.0924386 -0.173785 -0.00184528 0.0951277 0.111314 0.0574264 -0.198624 0.237644 -0.254735 -0.368667 0.106266 0.222294 0.172168 0.19446 0.31061 -0.47117 -0.503336 -0.448843
internal_weight=0 266.409 212.375 100.764 92.196 129.659 115.832 61.0308 54.8014 36.7105 111.61 78.2376 18.0909 33.3728 47.3454 13.8272 13.6854 54.0345 34.4699 32.7922 19.5646 9.84934 8.56827 6.76778
internal_count=1685 978 836 468 406 707 611 346 265 157 368 282 108 86 288 96 58 142 100 92 42 75 62 53
is_linear=0
shrinkage=0.3


Tree=3
num_leaves=16
num_cat=0
split_feature=0 8 3 2 10 14 2 11 10 10 6 11 14 11 14
split_gain=16.8694 15.0433 11.8186 11.3757 8.02194 8.84475 16.8719 18.8953 10.467 7.83741 6.59083 6.09995 4.80187 2.32919 2.69372
threshold=1.0000000180025095e-35 75.855000000000004 1.0000000180025095e-35 121.50000000000001 20.430000000000003 83.500000000000014 74.500000000000014 139.96500000000003 41.215000000000011 43.790000000000006 221.50000000000003 140.54500000000004 118.50000000000001 140.98500000000004 55.500000000000007
decision_type=2 2 2 2 2 2 2 2 2 2 2 2 2 2 2
left_child=4 2 3 9 -1 6 7 -6 -8 -2 -5 12 -7 14 -4
right_child=1 -3 13 10 5 11 8 -9 -10 -11 -12 -13 -14 -15 -16
leaf_value=0.1957116814061437 0.034789885051386818 -0.42774050238557465 0.17095696167052651 -0.36339826452359242 -0.34622883769216833 0.28609492236089057 -0.31021013014930615 0.41327739774186839 -0.07766813399068638 0.27172282527673014 -0.059849371515463629 -0.25589606868198767 0.0012641335717316043 0.067767993148801484 0.34834246143412645
leaf_weight=8.1559001058340055 154.60476619005203 5.9746898040175429 27.156850405037403 8.5461695268750173 4.4891718029975882 7.8307436183095041 43.747833363711834 8.5873257145285589 28.94757654517889 13.676571696996687 26.092281825840473 5.5538760870695105 16.660410776734352 11.6214292794466 10.756538607180117
leaf_count=27 566 39 76 61 32 22 340 27 154 37 139 35 70 39 21
internal_value=0 0.0427552 0.0538902 0.0218197 -0.091861 -0.112112 -0.161179 0.152538 -0.217611 0.0540459 -0.134742 0.0279641 0.0923353 0.185267 0.221284
internal_weight=0 258.429 252.455 202.92 123.973 115.817 85.7719 13.0765 72.6954 168.281 34.6385 30.045 24.4912 49.5348 37.9134
internal_count=1685 978 939 803 707 680 553 59 494 603 200 127 92 136 97
is_linear=0
shrinkage=0.3


Tree=4
num_leaves=18
num_cat=0
split_feature=5 13 2 8 14 14 3 11 12 7 14 7 14 1 6 10 2
split_gain=14.0111 11.1398 10.8278 12.2264 10.5241 10.589 8.16058 7.96994 11.6439 15.8969 8.49182 11.1665 7.81033 4.04738 3.74797 2.43737 1.92432
threshold=1.0000000180025095e-35 1218.5000000000002 112.50000000000001 69.510000000000019 230.50000000000003 36.500000000000007 1.0000000180025095e-35 141.51000000000002 9.5900000000000016 10.500000000000002 141.00000000000003 15.500000000000002 122.00000000000001 4.4350000000000014 163.50000000000003 37.705000000000005 105.50000000000001
decision_type=2 2 2 2 2 2 2 2 2 2 2 2 2 2 2 2 2
left_child=1 2 3 12 5 -4 7 10 9 -9 11 -2 -1 -10 -8 -16 -5
right_child=6 -3 4 16 -6 -7 14 8 13 -11 -12 -13 -14 -15 15 -17 -18
leaf_value=0.052170811799358244 0.1157560884424728 0.29610081205871458 -0.12972047934634989 -0.51584033607369362 0.14746238357121672 -0.40301141260692658 0.027222320388568821 0.022251444698054113 0.26782929652207271 -0.55988470193779016 0.29564697167634424 -0.079498935023985237 -0.22688695600813646 -0.06375546231929681 0.17843582656156134 0.41337755130082332 -0.19369857935434617
leaf_weight=83.87383721023798 69.514019124209881 7.6947794407606116 57.309554412961006 4.2402739748358718 9.3393456637859327 16.414520792663097 5.9465693682432201 8.454737834632402 6.8363964930176717 8.4328122362494451 13.255285337567328 42.463074401021004 10.115198522806166 6.4283485412597656 7.3125257939100292 8.7051404416561109 2.7520136907696724
leaf_count=349 256 19 340 33 32 117 22 37 21 67 32 214 53 32 25 19 17
internal_value=0 -0.0575439 -0.0723295 -0.0063339 -0.152561 -0.190568 0.059447 0.0352522 -0.103214 -0.268439 0.0685908 0.041713 0.0221383 0.107137 0.230612 0.30612 -0.389052
internal_weight=0 191.74 184.045 100.981 83.0634 73.7241 177.349 155.385 30.1523 16.8876 125.232 111.977 93.989 13.2647 21.9642 16.0177 6.99229
internal_count=1685 960 941 452 489 457 725 659 157 104 502 470 402 53 66 44 50
is_linear=0
shrinkage=0.3


Tree=5
num_leaves=12
num_cat=0
split_feature=2 10 10 4 11 7 11 9 8 14 10
split_gain=9.92015 8.00476 13.6119 8.21412 10.308 8.38538 6.74678 6.21589 3.62605 1.43049 0.241254
threshold=139.50000000000003 20.430000000000003 23.945000000000004 1.0000000180025095e-35 133.03500000000003 15.500000000000002 140.94000000000003 0.03500000000000001 71.485000000000014 13.500000000000002 41.410000000000004
decision_type=2 2 2 2 2 2 2 2 2 2 2
left_child=1 9 -3 4 -4 -5 7 -2 -9 -1 -8
right_child=6 2 3 5 -6 -7 10 8 -10 -11 -12
leaf_value=0.117126359066008 0.1286482370434863 -0.56938917391046706 0.25237947284063034 0.09892218642589666 -0.079432342986531346 -0.024268755710457193 -0.54199209768171119 -0.4522525405394564 -0.0077195988956678526 0.31213216978700326 -0.42059693779687196
leaf_weight=5.7113067060708991 6.2558808997273463 3.719170242547988 9.1180228441953641 113.20438672602177 111.05464596301317 88.687807951122522 2.4123880043625823 4.3333903849124908 2.6683838963508606 8.3139183670282346 3.7852039709687233
leaf_count=19 26 25 31 434 586 438 20 37 14 21 34
internal_value=0 0.0108069 0.00125328 0.007843 -0.0542563 0.0448065 -0.209461 -0.0886716 -0.282841 0.232723 -0.46785
internal_weight=0 339.809 325.784 322.065 120.173 201.892 19.4552 13.2577 7.00177 14.0252 6.19759
internal_count=1685 1554 1514 1489 617 872 131 77 51 40 54
is_linear=0
shrinkage=0.3


Tree=6
num_leaves=16
num_cat=0
split_feature=0 3 12 8 6 11 14 7 10 7 9 8 13 6 14
split_gain=8.38895 7.13549 7.77685 7.94691 9.54155 9.40349 7.51468 7.0162 5.72818 11.5768 9.31606 7.15798 7.06475 1.45476 0.106755
threshold=1.0000000180025095e-35 1.5000000000000002 67.280000000000015 62.240000000000002 206.50000000000003 143.09000000000003 70.500000000000014 44.500000000000007 42.110000000000007 11.500000000000002 0.20500000000000004 52.620000000000012 223.50000000000003 307.50000000000006 49.500000000000007
decision_type=2 2 2 2 2 2 2 2 2 2 2 2 2 2 2
left_child=7 2 3 4 -2 -5 -4 8 10 -10 11 -1 -11 -12 -9
right_child=1 -3 6 5 -6 -7 -8 14 9 12 13 -13 -14 -15 -16
leaf_value=0.07785306768826121 -0.025377642388221083 0.23356570303740515 -0.49355262743127531 -0.019778052270842447 0.13920009061676514 -0.47709368355628273 0.048470441790843262 0.14133253265948811 -0.37676648214728331 0.28648573629118906 -0.44856944248600583 -0.15147525293718023 -0.044652006902111734 -0.18477557275368461 0.2048997130713269
leaf_weight=16.609480619430542 52.144148431718349 14.625855371356009 5.1464804559946042 81.093950942158699 80.881365012377501 4.2592273131012908 4.1651929318904877 4.3118561357259733 5.3169403076171902 11.1288333311677 8.5680242478847486 46.664628177881241 12.106662839651106 2.4109361097216597 5.3009231835603714
leaf_count=75 209 38 33 383 263 37 15 20 37 41 80 355 63 16 20
internal_value=0 0.0304453 0.0173977 0.0288465 0.0746879 -0.0425987 -0.251101 -0.0687103 -0.0916279 0.0225697 -0.13554 -0.0912765 0.113949 -0.390641 0.176386
internal_weight=0 242.316 227.69 218.379 133.026 85.3532 9.31167 112.418 102.806 28.5524 74.2531 63.2741 23.2355 10.979 9.61278
internal_count=1685 978 940 892 472 420 48 707 667 141 526 430 104 96 40
is_linear=0
shrinkage=0.3


Tree=7
num_leaves=12
num_cat=0
split_feature=11 8 13 9 13 12 11 13 11 14 2
split_gain=6.43553 6.41445 6.09411 10.9248 9.01354 8.16912 6.14474 5.70623 5.04525 2.98537 0.0565082
threshold=145.40500000000003 75.855000000000004 265.50000000000006 0.22500000000000003 277.50000000000006 5.5150000000000015 131.90500000000003 251.50000000000003 136.04500000000004 22.500000000000004 118.50000000000001
decision_type=2 2 2 2 2 2 2 2 2 2 2
left_child=1 2 3 7 9 -5 -6 -1 -3 -4 -10
right_child=-2 8 4 5 6 -7 -8 -9 10 -11 -12
leaf_value=0.0068159890803995461 -0.35308317388152816 0.041885196980176974 0.36198243522212759 -0.48314158390219047 0.25696744265970545 0.0019316603088675873 0.0094248019693663823 -0.23246370692060997 -0.4730774700801465 0.12178551502238583 -0.40924677564396111
leaf_weight=149.34116816520691 4.6146155819296828 3.0983841158449632 9.8049718365073222 7.9540173560380918 9.6828204393386823 5.1463677883148193 132.83984713256359 9.5429158806800825 2.7836571335792542 8.8698443695902807 2.262981228530407
leaf_count=727 35 16 29 73 28 36 598 61 23 35 24
internal_value=0 0.00358287 0.010013 -0.0292669 0.0519214 -0.292585 0.0262426 -0.00755566 -0.25945 0.247898 -0.444455
internal_weight=0 341.327 333.182 171.984 161.197 13.1004 142.523 158.884 8.14502 18.6748 5.04664
internal_count=1685 1650 1587 897 690 109 626 788 63 64 47
is_linear=0
shrinkage=0.3


Tree=8
num_leaves=21
num_cat=0
split_feature=3 10 8 12 6 6 1 2 10 8 13 1 10 7 11 12 2 1 9 10
split_gain=5.87077 6.9217 11.2936 15.257 13.2734 10.4785 8.8085 6.50307 5.37393 6.19841 9.34543 10.1903 5.34981 5.19285 5.0756 7.30626 4.72611 4.20988 6.78773 3.6654
threshold=1.0000000180025095e-35 43.790000000000006 62.240000000000002 70.375000000000014 138.50000000000003 206.50000000000003 6.6050000000000013 131.50000000000003 43.790000000000006 59.585000000000008 268.50000000000006 4.5950000000000006 37.565000000000005 16.500000000000004 139.48000000000005 23.505000000000006 95.500000000000014 4.8150000000000004 0.18500000000000003 32.925000000000004
decision_type=2 2 2 2 2 2 2 2 2 2 2 2 2 2 2 2 2 2 2 2
left_child=1 2 3 5 12 -1 -6 17 9 10 11 -2 -4 -9 15 -11 -16 18 -3 -12
right_child=8 7 4 -5 6 -7 -8 13 -10 14 19 -13 -14 -15 16 -17 -18 -19 -20 -21
leaf_value=-0.070734629901006096 0.011556514522528793 -0.068600269141699227 -0.026646833443551479 -0.53219136094237174 -0.20520390944187741 0.086929927343296673 0.11843408251637308 -0.40841601959057111 -0.22916364693792646 -0.10641125648771969 -0.040636836496715879 -0.70158935849773996 0.40555892115692421 0.16634468280502657 0.49815724407051332 0.32513946314818848 0.17306312478394711 0.32152698244451733 0.36253062992819968 0.23131958151544982
leaf_weight=62.310129087418318 4.3420450836420086 9.8826092816889339 5.0390510037541372 4.5447724461555472 66.671180592849851 96.992847848683596 8.5380445048212987 3.4437853861600152 4.5945673286914817 8.6494636088609713 7.8096492588520077 3.0842449516057968 5.2764409147202969 2.4011335708200932 7.0586292445659664 5.9663306996226302 9.3634388260543329 10.734671145677565 4.9242451116442671 10.400094475597141
leaf_count=312 20 49 31 36 459 403 36 38 29 46 32 26 16 13 12 15 38 29 12 33
internal_value=0 -0.0196158 -0.036327 0.00979817 -0.124693 0.0252607 -0.168463 0.113159 0.0828819 0.10818 -0.000987222 -0.284623 0.194429 -0.1723 0.198347 0.0697526 0.312797 0.178483 0.0747789 0.114685
internal_weight=0 280.759 249.372 163.848 85.5247 159.303 75.2092 31.3864 61.2685 56.6739 25.636 7.42629 10.3155 5.84492 31.0379 14.6158 16.4221 25.5415 14.8069 18.2097
internal_count=1685 1434 1293 751 542 715 495 141 251 222 111 46 47 51 111 61 50 90 61 65
is_linear=0
shrinkage=0.3


Tree=9
num_leaves=17
num_cat=0
split_feature=5 12 11 13 12 13 2 11 11 11 14 1 8 7 12 8
split_gain=4.77046 5.35762 4.84547 4.34726 3.63706 3.61899 5.03722 5.11697 5.88384 5.28779 3.28342 2.88574 2.67805 2.25602 0.114174 0.101438
threshold=1.0000000180025095e-35 -4.254999999999999 143.94000000000003 1218.5000000000002 0.88000000000000012 141.50000000000003 128.50000000000003 140.98500000000004 143.51000000000002 139.11000000000004 133.00000000000003 4.3950000000000005 60.195000000000007 10.500000000000002 3.4300000000000006 64.560000000000016
decision_type=2 2 2 2 2 2 2 2 2 2 2 2 2 2 2 2
left_child=1 11 3 4 -3 13 7 9 -9 -7 -4 -1 -8 -2 -14 -13
right_child=5 2 10 -5 -6 6 12 8 -10 -11 -12 15 14 -15 -16 -17
leaf_value=-0.091103500188408681 -0.021057695156808963 0.044219411505184214 -0.45436987299521453 0.23393982589987486 -0.055561183086077513 0.0054800922155357713 0.41609787794013947 -0.11947667870327885 0.1742531060286881 0.14305895552418035 -0.00098456248833035274 -0.4738296045019012 0.092518818573198908 -0.35451600653850168 0.1627979846473924 -0.38353079538484597
leaf_weight=4.481551416218279 4.1168168373405924 48.653590671718121 3.8429352138191453 6.1598146483302108 101.39566247351468 58.243051413446665 4.395319700241088 31.643598765134811 7.614701595157384 44.241129521280527 2.2967732399702072 2.3781900405883789 4.282953664660452 3.2815226316452026 4.0455896034836769 2.1157216094434261
leaf_count=29 23 238 39 16 582 256 9 173 33 168 12 20 22 23 18 24
internal_value=0 -0.0358161 -0.0233422 -0.0130671 -0.0232072 0.0360065 0.0458238 0.0295923 -0.0625036 0.0648712 -0.284765 -0.261445 0.226641 -0.168963 0.126657 -0.431317
internal_weight=0 171.324 162.349 156.209 150.049 161.865 154.466 141.742 39.2583 102.484 6.13971 8.97546 12.7239 7.39834 8.32854 4.49391
internal_count=1685 960 887 836 820 725 679 630 206 424 51 73 49 46 40 44
is_linear=0
shrinkage=0.3


Tree=10
num_leaves=18
num_cat=0
split_feature=0 12 13 6 12 11 7 13 12 6 9 5 11 6 13 1 10
split_gain=4.97635 5.43829 5.29582 4.05858 8.62604 3.97861 7.36011 6.53529 11.6227 6.29191 4.98838 6.55654 4.95856 3.52335 2.42497 1.96561 0.0227264
threshold=1.0000000180025095e-35 154.00500000000002 160.50000000000003 102.50000000000001 34.295000000000009 137.69000000000003 49.500000000000007 244.50000000000003 4.2950000000000008 275.50000000000006 1.0000000180025095e-35 1.0000000180025095e-35 133.80000000000004 119.50000000000001 104.50000000000001 4.205000000000001 41.505000000000003
decision_type=2 2 2 2 2 2 2 2 2 2 2 2 2 2 2 2 2
left_child=1 2 14 -4 -5 10 7 8 -7 -9 11 12 -2 -12 -1 -15 -16
right_child=5 -3 3 4 -6 6 -8 9 -10 -11 13 -13 -14 15 16 -17 -18
leaf_value=0.018567599993962493 -0.012099769073828185 0.33657964630425236 0.18824877572188317 -0.035553062891089914 -0.38390703755528899 -0.15304870396744399 -0.34858297909152802 0.0049104938947936378 0.084401635523281865 0.17565247851361521 -0.094981867674168011 0.12712307272455373 -0.43600953692855415 0.02939956738352319 -0.37125515661663727 0.21157338512270388 -0.40992418155368127
leaf_weight=1.7111301682889442 5.4037366434931755 3.0823470950126639 6.1428702287375918 77.489847863093019 6.9732383377850047 43.818221848458052 5.2943515107035628 51.450093191117048 32.175693362019956 31.20538134034723 4.742701180279254 11.22495798766613 4.5953294187784195 6.4610193446278563 4.5180115513503551 30.464032962918282 1.9618418477475641
leaf_count=13 23 9 27 510 67 252 32 214 149 103 22 35 29 30 61 89 20
internal_value=0 -0.0558308 -0.0680736 -0.0471899 -0.064313 0.0239848 -0.000623469 0.0109884 -0.0525126 0.0693717 0.0881326 -0.0302506 -0.206918 0.148433 -0.299081 0.179697 -0.382963
internal_weight=0 101.879 98.7969 90.606 84.4631 226.836 163.944 158.649 75.9939 82.6555 62.8918 21.224 9.99907 41.6678 8.19098 36.9251 6.47985
internal_count=1685 707 698 604 577 978 750 718 401 317 228 87 52 141 94 119 81
is_linear=0
shrinkage=0.3


Tree=11
num_leaves=11
num_cat=0
split_feature=2 14 2 8 10 6 6 6 6 8
split_gain=3.78801 6.01436 4.98855 5.38996 4.96356 8.87835 8.74978 4.90192 2.84338 0.261512
threshold=137.50000000000003 76.500000000000014 135.50000000000003 38.840000000000011 31.975000000000005 156.50000000000003 157.50000000000003 468.50000000000006 204.50000000000003 55.905000000000008
decision_type=2 2 2 2 2 2 2 2 2 2
left_child=2 7 3 -1 6 -6 -5 8 -2 -10
right_child=1 -3 -4 4 5 -7 -8 -9 9 -11
leaf_value=0.24751136979543698 -0.088550627440662125 0.15571902816906166 0.28609749378787624 -0.29807063104283654 0.12252568260137971 -0.017077960249924199 -0.014303828699656761 0.12414768846213713 -0.50969591876580944 -0.38558774094304521
leaf_weight=7.8492639884352675 3.3569564996287244 4.8841240629553786 5.6772567573934785 13.384397262707351 52.46601340919733 187.60211679525673 36.309636309742928 2.8000361938029519 2.0784416850656271 5.7701137159019709
leaf_count=23 25 20 24 90 218 1002 167 14 18 84
internal_value=0 -0.130937 0.00752663 0.00221259 -0.00443222 0.0134319 -0.0907325 -0.230901 -0.319621 -0.418454
internal_weight=0 18.8897 303.289 297.611 289.762 240.068 49.694 14.0055 11.2055 7.84856
internal_count=1685 161 1524 1500 1477 1220 257 141 127 102
is_linear=0
shrinkage=0.3


Tree=12
num_leaves=16
num_cat=0
split_feature=11 8 1 1 8 10 10 13 2 2 8 2 14 13 1
split_gain=3.6004 3.47669 7.11299 8.90604 8.62405 6.00778 8.36673 7.09177 6.04059 5.3444 5.09421 4.66006 4.19606 5.64293 1.42493
threshold=145.07500000000002 55.215000000000011 6.6050000000000013 4.8350000000000009 67.955000000000027 32.805000000000007 30.085000000000004 267.50000000000006 83.500000000000014 75.500000000000014 51.995000000000012 117.50000000000001 74.500000000000014 283.50000000000006 4.3050000000000006
decision_type=2 2 2 2 2 2 2 2 2 2 2 2 2 2 2
left_child=1 5 3 11 -5 6 8 -8 -1 -7 -11 -3 13 -4 -2
right_child=14 2 12 4 -6 9 7 -9 -10 10 -12 -13 -14 -15 -16
leaf_value=-0.18612102827544383 -0.064320918183716033 0.037548134323235983 0.18517697261129115 -0.20729510096379211 0.038278885390649199 0.3614230437468397 -0.59910596812332895 -0.053034536016229643 0.10822266227208295 -0.14368155235337682 0.15583229850435756 -0.085872905508780142 0.3560858596562545 -0.14384045581445998 -0.39734813679176023
leaf_weight=7.9582304619252673 1.9734021686017502 107.38637795671821 13.097981836646801 41.639930751174688 18.627958193421364 8.1251703649759275 3.6460041273385269 5.1833388283848763 29.667374953627586 6.6773022115230587 21.784347733482718 37.026424441486597 5.8210520669817916 7.309684094041585 2.7926914002746344
leaf_count=43 15 503 48 280 116 17 31 24 121 36 79 288 13 44 27
internal_value=0 0.00325808 -0.0156741 -0.0345226 -0.131392 0.0559017 -0.0157088 -0.27853 0.0459657 0.146827 0.0855643 0.00590385 0.131414 0.0673284 -0.259458
internal_weight=0 313.951 230.909 204.681 60.2679 83.0418 46.4549 8.82934 37.6256 36.5868 28.4616 144.413 26.2287 20.4077 4.76609
internal_count=1685 1643 1292 1187 396 351 219 55 164 132 115 791 105 92 42
is_linear=0
shrinkage=0.3


Tree=13
num_leaves=18
num_cat=0
split_feature=12 9 6 1 10 14 8 12 9 11 14 1 1 5 1 6 1
split_gain=3.31005 6.46104 6.52803 3.80397 5.56742 5.03187 6.32546 4.8933 6.30218 3.51236 4.77383 3.86298 4.24464 3.04482 2.70098 1.95804 0.931895
threshold=48.480000000000011 0.015000000000000001 211.50000000000003 4.8350000000000009 42.305000000000007 168.00000000000003 53.095000000000006 6.1850000000000014 0.045000000000000005 143.05000000000004 18.500000000000004 4.8050000000000006 4.7550000000000008 1.0000000180025095e-35 5.4350000000000014 154.50000000000003 4.1950000000000012
decision_type=2 2 2 2 2 2 2 2 2 2 2 2 2 2 2 2 2
left_child=3 2 -2 9 5 6 -5 8 -6 11 -11 12 -1 -7 15 -3 -12
right_child=1 14 -4 4 7 13 -8 -9 -10 10 16 -13 -14 -15 -16 -17 -18
leaf_value=0.0018779834191600506 0.33350609896124472 0.13815478899297451 -0.024165620203817132 0.040327638012991371 0.32431794812403891 -0.061489514014732141 -0.18062906921971886 -0.22124548168082317 -0.066432846378159729 -0.079274112953773138 0.37318079334907434 0.22407046165224792 -0.26208781151644972 0.26720081423277259 -0.32465175353136672 -0.14004242395959676 0.18839365270008959
leaf_weight=159.77143733389676 12.165048502385622 4.6417760848999006 7.3778674006462088 15.30251883715391 8.8568145446479338 5.1870560608804208 48.99505168478936 3.7703547980636349 6.3984716124832621 5.2105129817500702 4.6595893856137973 6.7672052551060906 5.6774430833756915 4.9637426622211933 3.0455624731257549 4.4694033786654472 5.194271442014724
leaf_count=815 38 21 38 68 27 26 348 29 45 39 17 26 43 14 27 38 26
internal_value=0 0.0916558 0.198477 -0.0106125 -0.0600409 -0.0970532 -0.128042 0.0847899 0.160427 0.0140579 0.152969 0.00190685 -0.00718011 0.0992401 -0.0800683 0.00168776 0.275774
internal_weight=0 31.6997 19.5429 280.754 93.474 74.4484 64.2976 19.0256 15.2553 187.28 15.0644 172.216 165.449 10.1508 12.1567 9.11118 9.85386
internal_count=1685 162 76 1523 557 456 416 101 72 966 82 884 858 40 86 59 43
is_linear=0
shrinkage=0.3


Tree=14
num_leaves=21
num_cat=0
split_feature=3 14 14 8 11 2 2 10 12 10 10 8 13 14 1 14 4 8 2 0
split_gain=3.23612 3.86916 10.9379 7.84102 9.32348 10.2408 4.51616 5.48244 5.01864 3.23414 2.81727 4.91465 4.71857 3.46566 3.07999 2.87153 2.75407 2.72256 2.34531 1.10392
threshold=1.0000000180025095e-35 14.500000000000002 15.500000000000002 53.095000000000006 141.40500000000003 76.500000000000014 117.50000000000001 31.975000000000005 0.79500000000000015 39.995000000000012 42.020000000000003 59.585000000000008 268.50000000000006 25.500000000000004 4.7350000000000012 17.500000000000004 1.0000000180025095e-35 52.130000000000003 92.500000000000014 1.0000000180025095e-35
decision_type=2 2 2 2 2 2 2 2 2 2 2 2 2 2 2 2 2 2 2 2
left_child=1 3 9 16 5 -5 7 -4 -8 -3 11 12 17 18 -12 -14 -1 -2 -13 -6
right_child=10 2 6 4 19 -7 8 -9 -10 -11 14 13 15 -15 -16 -17 -18 -19 -20 -21
leaf_value=0.24644640248387442 -0.025354755526592939 0.099377141049648329 -0.10972165400662139 -0.41313326834348069 -0.29326653932001051 -0.015638037569684845 0.016500719516546532 0.042020447449685257 -0.20573241008844123 0.37668077784642534 -0.33112583592205524 0.40642526439613413 0.20785551784741299 0.026297509233626164 0.057924869048601037 -0.047211696853253403 -0.031485910507833947 -0.43870573339557106 0.17447784427160956 -0.52008984375481371
leaf_weight=7.7384923137724382 2.7290064468979862 6.9116865321993819 26.741318511776626 6.8523103520274153 3.2923976797610512 39.223987128585577 16.529096010141075 107.87265882082283 20.47368507925421 8.3679507039487344 3.1254295222461215 6.4567889571189943 7.5953858681023112 8.1530798822641355 4.4232342876493931 8.3276746533811075 5.4818353429436684 3.022400189191103 9.9995873756706697 4.670469406992197
leaf_count=24 15 30 148 49 38 232 104 517 193 28 25 12 25 39 25 40 27 27 43 44
internal_value=0 -0.0141885 0.00801678 -0.0758911 -0.126555 -0.0747522 -0.0136385 0.0118766 -0.106461 0.251244 0.0667822 0.0944984 -0.00966844 0.186242 -0.103157 0.0744567 0.131201 -0.242573 0.265484 -0.426305
internal_weight=0 254.156 186.896 67.2595 54.0392 46.0763 171.617 134.614 37.0028 15.2796 53.8326 46.2839 21.6745 24.6095 7.54866 15.9231 13.2203 5.75141 16.4564 7.96287
internal_count=1685 1434 1020 414 363 281 962 665 297 58 251 201 107 94 50 65 51 42 55 82
is_linear=0
shrinkage=0.3


Tree=15
num_leaves=17
num_cat=0
split_feature=0 14 14 1 6 10 13 12 10 8 8 12 12 8 14 8
split_gain=3.87427 3.22732 5.85985 6.76906 5.70498 5.69706 5.58066 3.80917 6.39107 2.6978 4.01396 2.73464 8.6799 4.4242 1.9608 0.0593423
threshold=1.0000000180025095e-35 73.500000000000014 34.500000000000007 3.9050000000000007 300.50000000000006 26.945000000000004 297.50000000000006 22.910000000000004 36.590000000000011 75.855000000000004 73.660000000000011 3.4300000000000006 1.0250000000000001 67.625000000000014 11.500000000000002 53.805000000000007
decision_type=2 2 2 2 2 2 2 2 2 2 2 2 2 2 2 2
left_child=1 2 3 14 7 -4 -5 8 -3 10 11 12 -2 -13 -1 -7
right_child=9 4 5 6 -6 15 -8 -9 -10 -11 -12 13 -14 -15 -16 -17
leaf_value=-0.056310432842561799 0.03502173695273092 -0.25097526576247148 0.21619932713510229 0.050495209502145803 -0.32443089042066525 -0.43817608978553096 -0.19106709324816423 0.28864358373306742 0.14143791523641849 -0.23042563331874133 0.29133599443765135 0.02676466786719375 -0.16929419033113408 0.19418517219694742 -0.40792313341715725 -0.37558567634406065
leaf_weight=1.9362492263317097 78.456746813841164 5.4921897053718665 1.6719226539134968 36.441498803906143 3.442494945600628 1.6813820898532847 11.269060526043175 6.3001486621797076 11.677179887890814 3.7296922365203491 5.0442573707550755 80.36087435297668 24.575000379234552 17.25598057359457 5.4315300658345222 7.2064004754647613
leaf_count=14 342 40 6 279 30 16 97 20 50 39 20 360 145 72 57 98
internal_value=0 -0.0512669 -0.0871384 -0.04789 0.0362232 -0.291854 -0.00656093 0.0891237 0.0159116 0.0224385 0.0270235 0.0203788 -0.0137114 0.05636 -0.315519 -0.387426
internal_weight=0 92.5501 65.638 55.0783 26.912 10.5597 47.7106 23.4695 17.1694 209.423 205.693 200.649 103.032 97.6169 7.36778 8.88778
internal_count=1685 707 567 447 140 120 376 110 90 978 939 919 487 432 71 114
is_linear=0
shrinkage=0.3


Tree=16
num_leaves=17
num_cat=0
split_feature=8 8 14 12 10 7 8 5 1 2 1 1 11 9 9 2
split_gain=3.37598 7.54257 7.48608 3.35659 5.79056 3.56358 2.79132 3.28476 4.29143 7.99019 5.41475 3.89291 3.3444 2.51873 1.97017 0.192531
threshold=69.760000000000005 70.670000000000016 14.500000000000002 1.7550000000000001 45.930000000000007 24.500000000000004 68.750000000000014 1.0000000180025095e-35 4.8350000000000009 123.50000000000001 5.3850000000000007 8.1850000000000005 135.01000000000002 1.0000000180025095e-35 0.045000000000000005 111.50000000000001
decision_type=2 2 2 2 2 2 2 2 2 2 2 2 2 2 2 2
left_child=6 -2 13 4 -4 -5 7 8 9 -1 -10 12 -9 -3 -8 -15
right_child=1 2 3 5 -6 -7 14 11 10 -11 -12 -13 -14 15 -16 -17
leaf_value=0.05360249426213342 -0.49638594010141662 -0.059884362505304059 -0.3723902068887498 0.20581120721705437 0.20348141516673729 -0.13425871461088537 0.035734044852828807 0.1809667044365135 -0.28916010245792317 -0.18796027988873462 -0.044706754291823622 0.29688919318069867 0.011788591305060174 -0.52261901538846389 0.30981571122563017 -0.39589035812447604
leaf_weight=68.09291884675622 3.6883296985179213 2.2276064371690181 3.8119437014684108 11.406597073655574 2.6737626027315855 3.6641326379030934 4.7981663467362505 11.607092946767805 10.933918293099849 15.046886220574377 32.08813867950812 5.0313843339681616 111.9282362209633 1.9289887882769106 4.6459121089428663 2.4483444490469992
leaf_count=331 39 16 39 65 13 28 26 41 102 138 190 15 568 19 23 32
internal_value=0 -0.0929818 -0.0401474 0.0454711 -0.134984 0.12313 0.0104102 0.00447245 -0.0299177 0.00988375 -0.106834 0.0382194 0.0276842 -0.319579 0.170566 -0.451737
internal_weight=0 31.8497 28.1614 21.5564 6.48571 15.0707 264.173 254.729 126.162 83.1398 43.0221 128.567 123.535 6.60494 9.44408 4.37733
internal_count=1685 251 212 145 52 93 1434 1385 761 469 292 624 609 67 49 51
is_linear=0
shrinkage=0.3


Tree=17
num_leaves=14
num_cat=0
split_feature=0 7 7 12 6 11 12 1 1 12 12 11 11
split_gain=2.15311 3.43247 3.22392 4.50969 4.81187 3.68265 3.19688 2.6731 4.48186 3.37341 4.59682 1.86216 0.672527
threshold=1.0000000180025095e-35 51.500000000000007 15.500000000000002 1.0000000180025095e-35 210.50000000000003 140.10500000000005 0.49500000000000005 8.7500000000000018 7.9050000000000011 67.280000000000015 48.480000000000011 143.81500000000003 139.11000000000004
decision_type=2 2 2 2 2 2 2 2 2 2 2 2 2
left_child=1 2 3 -1 -5 6 -4 8 9 10 -2 -7 -11
right_child=7 -3 5 4 -6 11 -8 -9 -10 12 -12 -13 -14
leaf_value=-0.40046976373989562 0.010825038409808009 0.15927132934220145 0.15966917834099154 -0.10381265130550506 0.10305566249196997 -0.37412581986058729 -0.11865556907110336 -0.17864357250672319 0.31942313741429934 -0.29803100100942931 0.21442292411510472 -0.01121818112741611 -0.10286555572239753
leaf_weight=2.4467994198203078 176.46256068069488 7.0988520197570315 4.4405229790136245 17.109786570537835 24.77029185090214 6.5349019486457092 22.707276704721153 6.1691644750535479 4.4538601003587237 3.1600719168782225 10.578860385343431 1.5802431777119634 3.1964629963040352
leaf_count=35 851 33 23 149 155 94 203 34 13 23 37 15 20
internal_value=0 -0.0406126 -0.0584408 -0.0045878 0.0185412 -0.126136 -0.0731304 0.0158246 0.0218882 0.0150361 0.0223403 -0.303458 -0.19989
internal_weight=0 86.6887 79.5898 44.3269 41.8801 35.2629 27.1478 204.021 197.852 193.398 187.041 8.11515 6.35653
internal_count=1685 707 674 339 304 335 226 978 944 931 888 109 43
is_linear=0
shrinkage=0.3


Tree=18
num_leaves=28
num_cat=0
split_feature=4 8 2 9 2 8 1 2 6 7 6 9 2 14 14 13 9 14 2 2 2 12 12 13 1 2 11
split_gain=2.30963 6.60469 12.7081 5.5135 6.40806 9.70666 5.64069 5.38817 5.29318 4.97767 4.96246 5.29797 4.84108 7.22534 4.28695 4.26155 5.25651 5.03005 4.82679 4.22694 4.01171 3.8803 7.13252 6.03868 3.41816 1.64728 1.24672
threshold=1.0000000180025095e-35 63.005000000000003 124.50000000000001 0.045000000000000005 94.500000000000014 58.410000000000004 3.9850000000000008 114.50000000000001 153.50000000000003 15.500000000000002 338.50000000000006 0.075000000000000025 121.50000000000001 249.50000000000003 13.500000000000002 269.50000000000006 0.22500000000000003 15.500000000000002 95.500000000000014 73.500000000000014 70.500000000000014 2.9200000000000004 0.85500000000000009 277.50000000000006 3.8250000000000006 128.50000000000003 138.97500000000002
decision_type=2 2 2 2 2 2 2 2 2 2 2 2 2 2 2 2 2 2 2 2 2 2 2 2 2 2 2
left_child=1 3 8 4 19 -6 7 -5 -3 15 11 -4 21 26 -8 16 20 -17 -19 -1 -2 22 -11 -23 -10 -18 -14
right_child=9 2 10 6 5 -7 14 -9 24 12 -12 -13 13 -15 -16 17 25 18 -20 -21 -22 23 -24 -25 -26 -27 -28
leaf_value=-0.20430642708648972 0.24145066031447648 -0.028677963119009837 0.15682004240441105 -0.38572573607700367 -0.46978730304470662 0.043240673114806692 -0.067308241069898953 0.12453356189704787 -0.1142516196933609 -0.015239266345977316 0.35769954932999026 -0.38293110895982063 -0.4767542271361439 0.24655011855515174 0.22581188637128488 0.28831564029884477 -0.48911023587972674 -0.14824000225033523 0.15147185170564215 0.10001564918331536 0.010061148265931298 0.19859653084256218 -0.42624008194405344 -0.037567741378196649 -0.42257861370693861 -0.091575829493856425 -0.24978043301956859
leaf_weight=5.3244793657213476 7.697964644059538 6.2788153979927328 4.4291356252506358 3.7046385277062646 7.110197651665656 6.2252370193600655 5.6606785436160889 3.7456813585013151 4.2500487938523319 17.093815837055448 4.6190815092995763 2.5959627125412226 3.1769057959318143 2.5212489254772654 21.723763963207603 13.791674163192509 2.2367828544229265 7.01481865346432 15.57048152387142 17.975356604903936 54.386594478040934 15.381526421755551 4.8864589706063262 26.588803614489734 13.563081928994505 1.6158066997304557 6.9269352168776095
leaf_count=34 27 38 37 29 62 42 38 19 31 105 22 37 35 9 87 41 26 37 62 69 288 65 46 147 147 19 86
internal_value=0 -0.0358515 -0.141156 0.0168022 -0.064449 -0.230296 0.102253 -0.129191 -0.265529 0.0198344 0.116174 -0.0426325 -0.0380103 -0.207777 0.165221 0.0631275 0.0176512 0.145558 0.0583837 0.030472 0.0387515 -0.00449512 -0.106609 0.0489831 -0.349015 -0.322381 -0.321147
internal_weight=0 107.206 35.7361 71.47 36.6353 13.3354 34.8348 7.45032 24.0919 178.89 11.6442 7.0251 76.5757 12.6251 27.3844 102.314 65.9371 36.377 22.5853 23.2998 62.0846 63.9506 21.9803 41.9703 17.8131 3.85259 10.1038
internal_count=1685 692 312 380 207 104 173 48 216 993 96 74 493 130 125 500 360 140 99 103 315 363 151 212 178 45 121
is_linear=0
shrinkage=0.3


Tree=19
num_leaves=14
num_cat=0
split_feature=3 7 7 11 2 11 2 2 2 14 14 10 12
split_gain=2.05637 3.20786 3.43361 3.49829 3.65034 2.36147 2.9007 2.64439 2.67077 2.54461 5.66367 2.05726 1.94091
threshold=1.0000000180025095e-35 81.500000000000014 60.000000000000007 134.37500000000003 64.500000000000014 139.11000000000004 79.500000000000014 95.500000000000014 112.50000000000001 49.500000000000007 18.500000000000004 31.975000000000005 22.910000000000004
decision_type=2 2 2 2 2 2 2 2 2 2 2 2 2
left_child=1 2 3 11 -5 6 -2 -7 -9 10 -8 -1 -10
right_child=5 -3 -4 4 -6 7 9 8 12 -11 -12 -13 -14
leaf_value=-0.023957085078173519 -0.26220055484321031 -0.29838806640380305 0.21210374901721055 -0.22108008006706253 -0.01719890930892979 0.26716313290606208 0.072865540550316105 -0.16486353248433927 0.021313397331664256 0.17345622183083878 -0.36742629664139176 0.20115180062708976 0.28843767411540056
leaf_weight=5.6878601517528287 3.4610656518489149 3.4929169081151477 6.1667948924005023 8.2357665523886663 195.9300546401646 7.8613420128822353 9.9122190624475497 3.8018370810896149 6.0193330030888301 7.5628062505275002 3.5787506280466905 10.217240080237387 4.1261669918894768
leaf_count=33 24 26 22 63 1248 24 58 28 43 32 29 42 13
internal_value=0 -0.0130842 -0.00867934 -0.0148661 -0.0254232 0.056204 -0.00768291 0.128018 0.0495901 0.0341577 -0.0439307 0.12065 0.129953
internal_weight=0 229.731 226.238 220.071 204.166 46.3235 24.5148 21.8087 13.9473 21.0538 13.491 15.9051 10.1455
internal_count=1685 1434 1408 1386 1311 251 143 108 84 119 87 75 56
is_linear=0
shrinkage=0.3


Tree=20
num_leaves=13
num_cat=0
split_feature=11 11 13 13 11 10 10 6 12 8 2 6
split_gain=2.03641 1.84195 6.50133 4.20649 3.60192 2.49002 4.91107 3.74156 2.42759 1.94111 1.56349 0.460463
threshold=145.07500000000002 142.67500000000004 206.50000000000003 401.50000000000006 142.46000000000001 31.975000000000005 30.085000000000004 129.50000000000003 9.5900000000000016 59.695000000000007 87.500000000000014 345.00000000000006
decision_type=2 2 2 2 2 2 2 2 2 2 2 2
left_child=1 4 8 9 5 6 -1 -7 10 -4 -3 -2
right_child=11 2 3 -5 -6 7 -8 -9 -10 -11 -12 -13
leaf_value=-0.01430705218324288 -0.12039067773343293 -0.038722727793292534 0.33612441994056558 -0.089214587093373487 -0.31698298401970504 0.13124693950012667 -0.25967485924250738 -0.0014470998012364369 0.050379619295140093 0.098013258101987813 -0.39789576667868343 -0.32779883500051016
leaf_weight=35.190523502416909 2.0763711011968549 1.6436581686139122 9.345328248105945 4.0647926051169625 3.3004858540371051 21.492093221284449 9.2768038688227517 173.6132270519156 3.4949151528999209 4.5970067242160431 3.2426563333719969 1.7971702022477982
leaf_count=190 25 10 31 30 27 95 86 1062 25 35 52 17
internal_value=0 0.0024594 0.0777354 0.179325 -0.0057194 -0.00143126 -0.0654958 0.01317 -0.14053 0.257615 -0.277077 -0.21662
internal_weight=0 269.261 26.3884 18.0071 242.873 239.573 44.4673 195.105 8.38123 13.9423 4.88631 3.87354
internal_count=1685 1643 183 96 1460 1433 276 1157 87 66 62 42
is_linear=0
shrinkage=0.3


Tree=21
num_leaves=23
num_cat=0
split_feature=4 7 8 13 8 9 2 9 7 2 6 13 2 12 12 8 12 9 10 9 11 10
split_gain=1.62898 4.97899 5.31002 6.59814 6.31476 3.55223 7.63073 4.31062 2.87519 3.33631 3.85317 5.24766 3.33192 3.11891 4.94511 7.22361 4.68176 2.48714 2.21927 4.12963 2.14379 0.411384
threshold=1.0000000180025095e-35 24.500000000000004 59.805000000000007 322.50000000000006 61.580000000000005 0.045000000000000005 84.500000000000014 0.15500000000000003 15.500000000000002 68.500000000000014 236.50000000000003 162.50000000000003 86.500000000000014 2.9200000000000004 -13.85 60.905000000000008 3.2750000000000004 0.34500000000000003 26.450000000000003 1.0000000180025095e-35 141.28000000000003 37.985000000000007
decision_type=2 2 2 2 2 2 2 2 2 2 2 2 2 2 2 2 2 2 2 2 2 2
left_child=1 2 5 4 -4 6 -1 -7 9 -2 12 -12 -11 14 -10 -16 -15 18 -3 -20 -18 -5
right_child=8 17 3 21 -6 7 -8 -9 13 10 11 -13 -14 16 15 -17 20 -19 19 -21 -22 -23
leaf_value=0.08515730400055177 0.22947949727995348 0.22292734568549552 -0.4579342155542378 -0.60082085603850233 -0.052712119919153651 0.18198263638933174 -0.29239488206633935 -0.13553000462731776 0.31855586566783367 -0.2032947050405054 -0.22550743849044652 0.13369146216428035 0.010388798971990633 0.36195572268442505 -0.0034301629635444318 -0.33606659399941502 -0.044484225354521005 0.30397637569230912 0.18006555265542298 -0.14128175251725178 0.11323684481004226 -0.41625665633268821
leaf_weight=10.82604491710663 8.5784538276493532 4.7806921228766504 3.9505046810954836 1.7965367920696724 27.937636115821078 14.491704941727223 8.6812262937892211 5.2395705431699744 2.2052941471338299 7.8828183338046065 4.0473660239949814 38.294037355110049 39.357179783284664 3.3162051867693654 13.241604745388033 10.562561214901505 33.384153831750154 4.0159443579614154 6.0260531473904839 8.9370134994387609 10.103477870114146 2.7517113098874688
leaf_count=47 30 15 42 21 251 56 75 42 7 47 51 165 207 9 92 114 214 12 28 68 57 35
internal_value=0 -0.0310445 -0.0686601 -0.151127 -0.102914 0.00791799 -0.0828629 0.0976683 0.0172454 0.0507518 0.0336366 0.0993561 -0.025268 -0.0279248 -0.111215 -0.15103 0.0183604 0.0887615 0.0449861 -0.011866 -0.0078409 -0.489159
internal_weight=0 99.4346 75.6749 36.4364 31.8881 39.2385 19.5073 19.7313 170.973 98.1599 89.5814 42.3414 47.24 72.8133 26.0095 23.8042 46.8038 23.7597 19.7438 14.9631 43.4876 4.54825
internal_count=1685 692 569 349 293 220 122 98 993 500 470 216 254 493 213 206 280 123 111 96 271 56
is_linear=0
shrinkage=0.3


Tree=22
num_leaves=20
num_cat=0
split_feature=10 3 12 2 2 6 6 13 10 1 12 6 9 5 13 14 10 1 11
split_gain=1.82096 3.07091 4.42712 6.66928 5.72672 2.88586 4.33085 4.01295 2.61817 5.84325 2.35489 4.67837 3.90441 1.88814 3.15334 4.95975 1.82573 1.19987 0.802189
threshold=43.790000000000006 1.0000000180025095e-35 0.32500000000000007 112.50000000000001 116.50000000000001 375.50000000000006 352.50000000000006 221.50000000000003 46.025000000000006 3.8550000000000004 0.49500000000000005 266.50000000000006 0.03500000000000001 1.0000000180025095e-35 180.50000000000003 9.5000000000000018 38.805000000000007 5.6250000000000009 140.56500000000003
decision_type=2 2 2 2 2 2 2 2 2 2 2 2 2 2 2 2 2 2 2
left_child=1 2 3 -1 -5 6 -4 -7 10 -10 -2 12 -12 14 -3 -16 17 -15 -11
right_child=8 13 5 4 -6 7 -8 -9 9 18 11 -13 -14 16 15 -17 -18 -19 -20
leaf_value=-0.51725782869057291 0.29594949601078929 0.19100129292008011 -0.014403696544014518 0.33831157454770716 -0.2413891459700957 -0.42981470877243744 0.19013646671730239 -0.056702993783191477 0.25656212151790309 -0.43535391705268195 0.35156156462521632 -0.2066866093480639 -0.015147977244197466 -0.050639792737918118 0.28904472229947664 -0.11540019768485332 0.27516297548811725 0.17641635064776845 -0.15873319255934834
leaf_weight=4.0226550903171283 5.4548952728509965 6.9286330458708134 160.31108821323141 2.4343616887927055 4.1453847791999578 3.3386151548475018 9.8914701621979457 11.637710374779997 2.6105279223993412 2.3229055739939217 5.3176922677084786 4.1018390366807571 5.1377521129325032 4.2632052050903422 3.3006573636084822 15.752574659883974 6.2490560412406913 4.1179039888083935 1.5888928663916884
leaf_count=39 24 34 1040 7 55 40 39 73 10 29 16 36 33 25 14 109 21 19 22
internal_value=0 -0.00884711 -0.0244204 -0.212954 -0.0269126 -0.0136259 -0.00251667 -0.139879 0.0740362 -0.0910309 0.127835 0.0648386 0.171362 0.066228 0.0176879 -0.0453368 0.152431 0.0609201 -0.322996
internal_weight=0 236.393 195.781 10.6024 6.57975 185.179 170.203 14.9763 26.5345 6.52233 20.0122 14.5573 10.4554 40.612 25.9819 19.0532 14.6302 8.38111 3.9118
internal_count=1685 1515 1293 101 62 1192 1079 113 170 61 109 85 49 222 157 123 65 44 51
is_linear=0
shrinkage=0.3


Tree=23
num_leaves=23
num_cat=0
split_feature=0 10 10 9 10 9 6 11 14 14 13 11 12 2 12 11 13 8 14 13 10 2
split_gain=1.77561 2.13492 2.27774 5.32523 4.53689 7.32257 5.77699 3.92306 3.69369 1.97127 1.87614 1.98661 5.56253 4.11942 3.98299 3.7606 4.08147 2.65974 1.70818 0.793439 0.00991594 0.00477102
threshold=1.0000000180025095e-35 44.235000000000007 38.005000000000003 0.13500000000000004 38.805000000000007 0.085000000000000006 217.50000000000003 138.715 18.500000000000004 23.500000000000004 160.50000000000003 139.11000000000004 3.1150000000000007 125.50000000000001 4.1700000000000008 140.42000000000004 236.50000000000003 67.045000000000016 10.500000000000002 267.50000000000006 41.410000000000004 85.500000000000014
decision_type=2 2 2 2 2 2 2 2 2 2 2 2 2 2 2 2 2 2 2 2 2 2
left_child=10 2 3 8 6 -6 -4 -5 -2 19 18 12 13 -12 -14 17 -17 -13 -1 -3 21 -20
right_child=1 9 4 7 5 -7 -8 -9 -10 -11 11 15 14 -15 -16 16 -18 -19 20 -21 -22 -23
leaf_value=0.034975498239214656 -0.078780474151721611 0.11519106764069244 -0.052818679401328623 0.32903304825841928 0.061148923166412308 -0.17536640899999395 -0.58674279430924214 0.049237583568673353 0.048897183095156199 -0.031249204625535463 -0.35740035805876508 0.17916321120643927 0.24990706593965167 0.047307410242500507 -0.064349922700002532 0.060805603954497189 -0.20732243498969219 -0.13254928289033888 -0.34963003061571429 0.3007246204346099 -0.37136107577979099 -0.32191873985009167
leaf_weight=1.574450735002755 31.705296270549297 3.7220918126404268 4.8766903616487971 8.577623054385187 40.090130693279207 16.684030763804913 2.9134208802133799 9.5109314545989019 57.153279097750783 4.293263839557766 8.4130425080657023 13.925873045809569 4.8618631539866355 3.0967852417379609 14.323510040063409 10.71018296480179 9.7707502045668644 2.9931343235075465 1.0757712451741106 4.6864622011780739 0.98356270883232344 1.1643970294389872
leaf_count=16 174 30 26 24 198 143 26 46 265 29 101 88 23 28 133 97 113 28 20 17 19 41
internal_value=0 0.0154715 0.00668255 0.0335445 -0.0378129 -0.00835504 -0.252501 0.181917 0.003341 0.134148 -0.0398441 -0.0270683 -0.0836296 -0.248511 0.0152875 0.0193532 -0.0671091 0.124018 -0.221157 0.218597 -0.346251 -0.335226
internal_weight=0 184.213 171.511 106.947 64.5643 56.7742 7.79011 18.0886 88.8586 12.7018 72.8933 68.0951 30.6952 11.5098 19.1854 37.3999 20.4809 16.919 4.79818 8.40855 3.22373 2.24017
internal_count=1685 978 902 509 393 341 52 70 439 76 707 611 285 129 156 326 210 116 96 47 80 61
is_linear=0
shrinkage=0.3


Tree=24
num_leaves=11
num_cat=0
split_feature=14 7 2 14 13 2 2 11 2 8
split_gain=1.62057 4.07044 5.66445 2.8193 1.9743 2.82115 2.70705 6.59182 2.48778 2.19354
threshold=249.50000000000003 43.500000000000007 108.50000000000001 177.50000000000003 812.00000000000011 89.500000000000014 78.500000000000014 139.17500000000004 85.500000000000014 56.635000000000012
decision_type=2 2 2 2 2 2 2 2 2 2
left_child=3 2 -2 4 6 -6 7 -1 -8 -7
right_child=1 -3 -4 -5 5 9 8 -9 -10 -11
leaf_value=-0.27235181138170883 -0.29633309472244962 0.31518958096475408 0.13873544973831226 -0.23541814424579105 0.21989584732237574 0.15192661264382021 0.096814629134254773 0.015251082301030399 -0.0092139083122166517 -0.16788887636728356
leaf_weight=11.461957113817336 4.0287400707602528 5.0399275161325923 8.1251152604818326 4.7604606803506604 8.3712145760655421 3.3881925195455542 22.7510802494362 19.164721646346152 159.84038952365518 4.4852167903445661
leaf_count=92 30 15 37 36 39 14 107 111 1171 33
internal_value=0 0.088516 -0.00548036 -0.00690659 -0.00216587 0.0986501 -0.00984681 -0.0923836 0.00399735 -0.0302615
internal_weight=0 17.1938 12.1539 234.223 229.463 16.2446 213.218 30.6267 182.591 7.87341
internal_count=1685 82 67 1603 1567 86 1481 203 1278 47
is_linear=0
shrinkage=0.3


Tree=25
num_leaves=11
num_cat=0
split_feature=14 14 14 14 11 9 14 2 11 7
split_gain=1.60029 2.92682 1.82083 8.06191 10.2502 5.03947 3.484 3.41327 2.69169 1.57812
threshold=787.00000000000011 260.00000000000006 36.500000000000007 53.500000000000007 140.67500000000004 0.18500000000000003 29.500000000000004 113.50000000000001 132.90000000000003 31.500000000000004
decision_type=2 2 2 2 2 2 2 2 2 2
left_child=1 2 6 5 -5 -4 8 -8 -1 -3
right_child=-2 9 3 4 -6 -7 7 -9 -10 -11
leaf_value=-0.21010294906134486 -0.20614885865397042 0.056644534677991444 -0.30175185373438185 0.086736610585465029 -0.26930245449615475 0.19421891163392094 0.029767526742428451 0.28086414187200831 0.0032259700025929349 0.2795742649681589
leaf_weight=5.5232957517728201 3.3452007435262194 6.930608890950678 13.571943564806132 36.158903603907675 9.1112374626100046 2.1336728907190254 12.560714213177564 7.9598920554853967 146.88944506598637 4.8633464984595776
leaf_count=42 23 36 134 209 88 13 71 43 1010 16
internal_value=0 0.00275479 -0.00459746 -0.0491726 0.0150789 -0.234372 0.0111196 0.127167 -0.00450487 0.148572
internal_weight=0 245.703 233.909 60.9758 45.2701 15.7056 172.933 20.5206 152.413 11.794
internal_count=1685 1662 1610 444 297 147 1166 114 1052 52
is_linear=0
shrinkage=0.3


Tree=26
num_leaves=21
num_cat=0
split_feature=0 9 10 4 10 12 1 12 7 14 2 7 11 12 14 9 10 14 6 4
split_gain=1.32357 1.79148 5.43865 3.64537 2.5847 3.13273 3.7129 1.99538 1.74391 3.52968 5.00261 3.21941 2.80243 2.5485 5.37682 2.61419 2.53858 1.35148 1.22797 0.955849
threshold=1.0000000180025095e-35 1.0000000180025095e-35 31.975000000000005 1.0000000180025095e-35 26.450000000000003 0.49500000000000005 2.7150000000000003 0.32500000000000007 32.500000000000007 25.500000000000004 104.50000000000001 30.500000000000004 139.48000000000005 4.2950000000000008 39.500000000000007 0.10500000000000002 34.805000000000007 15.500000000000002 186.50000000000003 1.0000000180025095e-35
decision_type=2 2 2 2 2 2 2 2 2 2 2 2 2 2 2 2 2 2 2 2
left_child=1 2 -1 18 19 7 -7 -6 11 10 16 13 -11 14 -2 -15 -10 -5 -4 -3
right_child=8 4 3 17 5 6 -8 -9 9 12 -12 -13 -14 15 -16 -17 -18 -19 -20 -21
leaf_value=-0.38657812227072319 0.018654538319383115 0.20046534237704722 0.035961087078207533 0.33231420078465329 -0.020767944590682517 0.2575273654811211 -0.14816511828861631 0.31971046944202347 -0.15927493788931676 -0.10231676334708234 0.0828969793294351 0.28369224729311571 0.18920100368445436 0.088800471682707563 -0.17502978583027842 -0.062865038784125915 -0.55679650522338076 0.11528229873176656 -0.36266388256152682 -0.0082953981019477426
leaf_weight=2.176935536786913 69.935676739783958 3.9362029265612355 1.2834778139367675 4.3837854005396366 4.5457508177496484 2.1544103901833287 35.246300752507523 2.3499666973948479 2.6600805297493952 6.0510150734335166 3.3924595974385738 4.1945090554654589 5.8248438201844692 55.295578320510685 15.81716330652125 12.549741663970051 3.1673195399343967 6.2838327959179878 1.518223261926323 3.9596262853592634
leaf_count=30 385 15 14 16 60 8 453 11 17 35 16 13 23 272 108 83 26 44 28 28
internal_value=0 -0.03566 0.0533804 0.124487 -0.0623526 -0.0905389 -0.124796 0.0952625 0.0135524 -0.0674576 -0.206729 0.0243828 0.0406662 0.0173015 -0.0170707 0.060746 -0.375337 0.20447 -0.180051 0.0957753
internal_weight=0 67.8385 15.6463 13.4693 52.1923 44.2964 37.4007 6.89572 178.888 21.0957 9.21986 157.793 11.8759 153.598 85.7528 67.8453 5.8274 10.6676 2.8017 7.89583
internal_count=1685 707 132 102 575 532 461 71 978 117 59 861 58 848 493 355 43 60 42 43
is_linear=0
shrinkage=0.3


Tree=27
num_leaves=14
num_cat=0
split_feature=9 6 9 7 1 1 14 4 11 11 8 12 8
split_gain=1.66264 3.82996 3.42332 2.70971 1.67454 4.55438 3.41924 2.09477 3.91613 2.84587 1.60607 1.36122 0.366501
threshold=0.42500000000000004 206.50000000000003 0.29500000000000004 33.500000000000007 5.035000000000001 5.1950000000000012 14.500000000000002 1.0000000180025095e-35 137.49000000000004 134.99500000000003 53.095000000000006 5.5150000000000015 59.805000000000007
decision_type=2 2 2 2 2 2 2 2 2 2 2 2 2
left_child=2 -2 4 12 7 10 -7 8 -1 -9 -6 -3 -4
right_child=1 11 3 -5 5 6 -8 9 -10 -11 -12 -13 -14
leaf_value=0.13595611846454819 -0.17411786726568526 0.071681968604324048 -0.5002643134133623 0.081253843963883146 -0.021413501282454301 -0.13020932925945414 0.024943086179800442 -0.21518157442607821 -0.068118765765396494 0.052785901398492201 -0.41983423513887802 0.31227382086781913 -0.30648232294884004
leaf_weight=10.421012705191968 3.1478152526542535 3.6287769852206093 1.589321564882993 1.5589563287794588 1.2160594165325154 17.668389549478889 46.239477155264467 3.703737072646617 45.039863858837634 96.562813875731081 3.6250169211998582 5.0783734328579158 1.9637124640867112
leaf_count=64 35 25 20 8 9 140 312 27 367 567 53 24 34
internal_value=0 0.109479 -0.00573423 -0.248485 -0.000206082 -0.0392032 -0.0179514 0.01701 -0.0297734 0.0428875 -0.319753 0.212005 -0.393164
internal_weight=0 11.855 229.588 5.11199 224.476 68.7489 63.9079 155.727 55.4609 100.267 4.84108 8.70715 3.55303
internal_count=1685 84 1601 62 1539 514 452 1025 431 594 62 49 54
is_linear=0
shrinkage=0.3


Tree=28
num_leaves=17
num_cat=0
split_feature=3 5 13 14 14 11 7 10 1 10 10 10 1 13 8 13
split_gain=1.27414 2.15945 3.10546 3.22793 2.48603 1.66344 1.58375 6.28866 5.45892 4.16939 5.79422 3.99519 2.74757 1.20268 1.27396 1.02258
threshold=1.0000000180025095e-35 1.0000000180025095e-35 180.50000000000003 9.5000000000000018 249.50000000000003 145.01000000000002 13.500000000000002 35.985000000000007 4.455000000000001 34.005000000000003 33.215000000000011 29.695000000000004 6.6050000000000013 408.50000000000006 59.585000000000008 138.50000000000003
decision_type=2 2 2 2 2 2 2 2 2 2 2 2 2 2 2 2
left_child=5 2 15 -4 -5 6 7 11 -9 10 -8 -1 -11 14 -3 -2
right_child=1 13 3 4 -6 -7 9 8 -10 12 -12 -13 -14 -15 -16 -17
leaf_value=-0.10850683741189739 0.059726443350123171 0.087508815760115502 0.22493614537717876 -0.17875360263128443 0.11520229499382863 -0.25785994241097593 -0.036792961960441559 -0.020415960195312607 -0.22706214002995334 0.032110017721334434 -0.48213257849942548 0.11584674484268846 0.21250388245748517 0.025411357498623034 0.31894802821491136 0.29050961840908834
leaf_weight=9.7829152448102814 3.6108236480504301 3.9243740541860443 2.9203764079138663 12.589551912155001 3.2597556225955477 2.4065997425932428 26.696949511300776 26.190804053097963 20.518790125846863 75.397915859241039 2.9166488796472541 26.477822969201952 8.450534572824834 4.7198646925389758 4.7091683149337769 3.3137413881486282
leaf_count=65 24 27 16 112 17 35 191 166 202 565 30 142 38 23 16 16
internal_value=0 0.049316 -0.00154365 -0.0648918 -0.118295 -0.00995847 -0.00692129 -0.0384221 -0.111192 0.016114 -0.0806545 0.0553176 0.0502907 0.147179 0.213747 0.170167
internal_weight=0 39.0477 25.6942 18.7697 15.8493 198.839 196.432 82.9703 46.7096 113.462 29.6136 36.2607 83.8485 13.3534 8.63354 6.92457
internal_count=1685 251 185 145 129 1434 1399 575 368 824 221 207 603 66 43 40
is_linear=0
shrinkage=0.3


Tree=29
num_leaves=11
num_cat=0
split_feature=6 11 6 12 11 2 13 8 11 2
split_gain=1.10527 2.93723 1.99638 1.67448 1.50614 5.31774 5.89233 3.78316 2.677 3.54037
threshold=92.500000000000014 136.99000000000004 112.50000000000001 19.685000000000006 139.03000000000003 82.500000000000014 733.00000000000011 42.175000000000004 139.22500000000002 84.500000000000014
decision_type=2 2 2 2 2 2 2 2 2 2
left_child=1 -1 3 -2 5 6 -4 -7 -6 -10
right_child=2 -3 4 -5 8 7 -8 -9 9 -11
leaf_value=0.071324356080406451 -0.013801250794571578 -0.301339648176641 -0.27701346660700932 0.24816399352913743 0.23989152612747083 0.21916659287326928 0.16292024811441302 -0.018106966847192763 0.096337256649944109 -0.020252770801146413
leaf_weight=3.8610838539898387 3.7046216037124378 3.7542747547850013 13.099669655319305 5.3926371959969401 4.7716194838285437 6.6276639737188807 3.4647398767992845 69.125951789319515 31.936890295241028 88.110811911290511
leaf_count=22 25 38 111 22 22 28 19 493 170 735
internal_value=0 -0.112394 0.0038041 0.141485 -0.00196425 -0.0310168 -0.184994 0.00265203 0.0195234 0.0107643
internal_weight=0 7.61536 226.235 9.09726 217.137 92.318 16.5644 75.7536 124.819 120.048
internal_count=1685 60 1625 47 1578 651 130 521 927 905
is_linear=0
shrinkage=0.3


Tree=30
num_leaves=17
num_cat=0
split_feature=10 8 7 7 6 9 8 10 3 11 12 1 8 1 4 11
split_gain=1.31022 2.29607 1.58772 2.21236 2.79729 2.21803 2.70846 1.52946 1.22242 2.35683 2.04501 1.44195 2.65305 2.30737 0.632284 0.0727938
threshold=43.790000000000006 74.700000000000003 25.500000000000004 15.500000000000002 154.50000000000003 0.17500000000000002 74.895000000000024 33.580000000000005 1.0000000180025095e-35 131.90500000000003 0.35500000000000004 6.3950000000000005 58.195000000000007 3.8050000000000002 1.0000000180025095e-35 136.60500000000005
decision_type=2 2 2 2 2 2 2 2 2 2 2 2 2 2 2 2
left_child=1 8 3 5 -5 6 -2 -3 9 -1 -11 13 -13 -10 -6 -9
right_child=2 7 -4 4 14 -7 -8 15 11 10 -12 12 -14 -15 -16 -17
leaf_value=0.17323846526929954 -0.062305613932342352 0.054012047243254799 0.24194204997769572 0.13074826907273346 -0.16927017402446273 0.31894182250979247 0.29163810912760157 -0.4437552462686884 -0.14772259002302235 -0.15948679552117981 -0.012174016321162348 -0.3438472245026491 0.062814150851913275 0.11244207387261226 -0.43815484965732604 -0.33687553357337602
leaf_weight=5.8723740819841614 7.4829032979905659 0.99929768033325617 3.9388270508497945 2.177677556872367 1.491066038608551 3.1238508818205437 2.6295648613013327 1.1548403166234495 3.5220249015837934 8.9673800608143193 156.43079293589108 2.2246138863265505 4.1139211421832442 23.802990742959082 1.6670911826658994 1.1393343620002268
leaf_count=31 65 9 17 9 21 15 19 14 28 104 1112 22 26 139 24 30
internal_value=0 -0.00725118 0.068937 0.0322457 -0.130834 0.0979865 0.0297311 -0.25575 -0.00325758 -0.0135298 -0.0201609 0.0490043 -0.0799104 0.0789085 -0.311206 -0.390677
internal_weight=0 208.228 22.511 18.5722 5.33583 13.2363 10.1125 3.29347 204.934 171.271 165.398 33.6636 6.33854 27.325 3.15816 2.29417
internal_count=1685 1515 170 153 54 99 84 53 1462 1247 1216 215 48 167 45 44
is_linear=0
shrinkage=0.3


Tree=31
num_leaves=9
num_cat=0
split_feature=11 11 6 2 7 2 14 10
split_gain=5.28242 1.9337 0.984611 5.67128 3.999 3.13355 4.92455 0.452033
threshold=124.50000000000001 131.90500000000003 240.50000000000003 61.500000000000007 7.5000000000000009 55.500000000000007 11.500000000000002 34.005000000000003
decision_type=2 2 2 2 2 2 2 2
left_child=-1 7 5 -4 -5 -3 -7 -2
right_child=1 2 3 4 -6 6 -8 -9
leaf_value=-0.6355972668736708 0.075360414134803558 0.21126634331175628 -0.43993180332150622 -0.30557125040663913 0.041267309592443797 -0.1940703811050403 -0.0066236253070459713 0.22308517144594944
leaf_weight=1.1702794525772322 3.5288777314126483 5.0190444011241189 2.3600478349253526 3.0870506130158892 97.01049925701227 14.505519812926648 96.734506626380607 3.9521003365516663
leaf_count=12 25 26 31 31 703 135 704 18
internal_value=0 0.00342139 -0.00170852 0.0197329 0.0305707 -0.0206046 -0.0310664 0.153401
internal_weight=0 226.198 218.717 102.458 100.098 116.259 111.24 7.48098
internal_count=1685 1673 1630 765 734 865 839 43
is_linear=0
shrinkage=0.3


Tree=32
num_leaves=17
num_cat=0
split_feature=5 12 2 9 12 6 11 12 12 12 12 7 12 1 8 1
split_gain=1.17944 2.0781 2.11196 2.23435 5.14677 3.2894 1.95781 2.26989 4.06019 4.63366 4.1326 3.86045 3.58012 3.24395 0.784189 0.9782
threshold=1.0000000180025095e-35 -7.3799999999999999 128.50000000000003 0.015000000000000001 23.505000000000006 361.50000000000006 128.50000000000003 11.365000000000002 0.88000000000000012 0.83500000000000008 3.1150000000000007 17.500000000000004 13.305000000000001 5.6050000000000013 60.195000000000007 4.6850000000000014
decision_type=2 2 2 2 2 2 2 2 2 2 2 2 2 2 2 2
left_child=6 -2 3 5 -5 -3 -1 8 9 -8 -10 12 -9 -13 -4 -16
right_child=1 2 14 4 -6 -7 7 11 10 -11 -12 13 -14 -15 15 -17
leaf_value=-0.31831790464704468 0.26065025782375961 0.063967084965414561 0.2877886874543823 -0.008183807247878358 -0.30824471531725772 -0.23616293838458094 -0.020044759826001287 0.40251692834390235 -0.29750083209552652 0.34315987648743118 -0.055999903995678051 0.0090404463413163993 0.064157129910738034 -0.30054573718138944 0.20722903360787426 -0.039819755277575204
leaf_weight=1.9743262957781542 3.1713182600215069 50.69667836278677 2.7938881590962392 43.350762791931629 5.8374456060118964 3.5143789085559538 34.16768968780525 3.1808631485328105 9.5444316333159822 3.4836021102964869 19.217373907216825 9.4854682842269522 24.426876078359783 4.4871728918515137 3.158215974457562 2.6551664359867573
leaf_count=22 15 277 11 288 58 26 304 13 129 13 173 83 175 48 21 29
internal_value=0 0.0211691 0.0143886 0.00250308 -0.0437937 0.0445103 -0.0222692 -0.0168569 -0.0512715 0.0135599 -0.136141 0.0381108 0.103142 -0.09038 0.157169 0.0943936
internal_weight=0 115.178 112.007 103.399 49.1882 54.2111 109.968 107.993 66.4131 37.6513 28.7618 41.5804 27.6077 13.9726 8.60727 5.81338
internal_count=1685 725 710 649 346 303 960 938 619 317 302 319 188 131 61 50
is_linear=0
shrinkage=0.3


Tree=33
num_leaves=24
num_cat=0
split_feature=14 14 8 10 12 2 6 11 13 10 10 8 14 10 9 14 12 8 1 11 8 6 11
split_gain=0.932064 4.22078 3.75905 3.08915 2.91386 2.37983 2.39409 2.3145 1.88546 1.6884 5.82569 2.85582 1.41354 2.46588 3.58315 2.55331 2.18876 2.15553 1.73841 1.69423 0.556343 0.121433 0.0173245
threshold=67.500000000000014 36.500000000000007 57.910000000000004 28.610000000000003 8.2950000000000017 139.50000000000003 468.50000000000006 136.04500000000004 448.50000000000006 41.215000000000011 40.495000000000012 59.805000000000007 104.50000000000001 36.885000000000005 0.025000000000000005 249.50000000000003 5.2550000000000008 58.530000000000008 4.8850000000000007 139.62000000000003 58.195000000000007 209.50000000000003 138.19000000000003
decision_type=2 2 2 2 2 2 2 2 2 2 2 2 2 2 2 2 2 2 2 2 2 2 2
left_child=1 5 3 -3 -5 9 22 -4 -9 10 -1 -11 16 14 15 -14 17 -2 19 -15 -18 -16 -7
right_child=12 2 7 4 -6 6 -8 8 -10 11 -12 -13 13 18 21 -17 20 -19 -20 -21 -22 -23 -24
leaf_value=0.010866943291250123 0.16730376635777769 -0.27193348781888982 0.023638514457099479 -0.088019796567005745 0.2803250183151515 -0.38481785622988002 0.17159683397114014 -0.38445199859108742 -0.069678290892538366 0.21149871317287391 -0.30022926169439185 0.022928319637200524 -0.16868241910606246 -0.15734931589644724 -0.30501284932467637 0.13613303465926857 0.13029921249362353 -0.18289416629088262 0.22224607909991695 0.10891656011263713 0.27971955089892331 -0.41797325362632504 -0.33596390201169163
leaf_weight=104.81385330599733 2.9274436067789784 2.7768233343958872 2.2999180294573298 3.8488749945536256 3.8827465213835239 0.94270193297415916 1.0619599781930444 7.3791302670724672 2.2302465729881078 9.3746540620923025 5.7127918461337677 31.568010699469596 4.5256887841969746 3.5087480181828123 1.8696895539760583 5.4536815918982029 4.3142315670847875 3.4414936960674822 5.2921042554080477 5.5568095936905593 4.6705823400989175 1.5805482808500526 2.1279077306389809
leaf_count=739 16 23 22 34 17 16 9 107 19 39 54 242 36 30 26 26 25 38 30 31 21 18 67
internal_value=0 -0.00959706 -0.131298 -0.00051934 0.0969595 0.00793659 -0.216679 -0.246694 -0.311396 0.0140648 -0.00521269 0.0661053 0.0395524 -0.000813511 -0.0932182 -0.00210213 0.112607 -0.0219278 0.0856183 0.00586059 0.207972 -0.35676 -0.350962
internal_weight=0 178.02 22.4177 10.5084 7.73162 155.602 4.13257 11.9093 9.60938 151.469 110.527 40.9427 43.141 27.7873 13.4296 9.97937 15.3538 6.36894 14.3577 9.06556 8.98481 3.45024 3.07061
internal_count=1685 1388 222 74 51 1166 92 148 126 1074 793 281 297 197 106 62 100 54 91 61 46 44 83
is_linear=0
shrinkage=0.3


Tree=34
num_leaves=13
num_cat=0
split_feature=1 1 1 6 11 11 6 1 10 14 12 8
split_gain=0.903907 3.39127 2.31301 2.31045 3.82023 3.17188 2.08069 2.16472 1.92897 3.58217 2.9387 0.898751
threshold=4.705000000000001 4.6350000000000007 4.6050000000000013 138.50000000000003 138.48000000000005 142.67500000000004 78.500000000000014 4.7350000000000012 41.07500000000001 26.500000000000004 6.1850000000000014 60.875000000000007
decision_type=2 2 2 2 2 2 2 2 2 2 2 2
left_child=1 2 3 4 -1 -5 -2 -8 9 -9 -10 -3
right_child=6 11 -4 5 -6 -7 7 8 10 -11 -12 -13
leaf_value=0.2502323775923283 -0.32455882736996428 0.087283667944330443 -0.23664381878319729 -0.025739245450583655 -0.070673673974854925 0.13968457346235669 -0.27754309876784317 -0.10520658075538743 0.13160402574272198 0.037054585204722691 -0.12970843433833351 0.2788935024203269
leaf_weight=8.4975687144324166 2.0154177616350344 3.943377190269528 3.527522013988345 87.577629959094338 5.4994044890627256 11.842515366617588 2.7642652252688995 31.826630586292595 16.415255623287525 31.893428227864206 5.0694221940357229 4.9924251474440098
leaf_count=40 23 18 36 635 46 99 25 311 125 244 58 25
internal_value=0 0.016202 0.00259073 0.0100315 0.124149 -0.00603465 -0.0231721 -0.0162672 -0.00779072 -0.0340014 0.069946 0.194336
internal_weight=0 125.88 116.945 113.417 13.997 99.4201 89.9844 87.969 85.2047 63.7201 21.4847 8.9358
internal_count=1685 899 856 820 86 734 786 763 738 555 183 43
is_linear=0
shrinkage=0.3


Tree=35
num_leaves=24
num_cat=0
split_feature=14 11 8 2 8 14 10 10 2 6 6 13 12 10 10 11 13 8 1 12 11 3 7
split_gain=1.00404 2.71099 6.87575 2.51221 2.0378 3.79492 1.84556 3.84002 3.17289 3.08665 2.85779 4.10506 2.4044 1.80331 2.35459 1.63363 2.59778 1.37077 1.11567 0.972556 1.06206 0.941675 0.701078
threshold=15.500000000000002 141.40500000000003 47.925000000000004 75.500000000000014 69.075000000000003 14.500000000000002 31.975000000000005 34.405000000000008 110.50000000000001 164.50000000000003 197.50000000000003 299.50000000000006 4.2950000000000008 34.955000000000005 35.390000000000008 140.82500000000002 270.50000000000006 61.835000000000001 6.3950000000000005 64.550000000000011 136.55000000000004 1.0000000180025095e-35 14.500000000000002
decision_type=2 2 2 2 2 2 2 2 2 2 2 2 2 2 2 2 2 2 2 2 2 2 2
left_child=1 4 -3 -4 15 18 9 8 12 19 -11 -12 -8 -9 -15 16 -1 -17 -6 20 -2 -5 -10
right_child=6 2 3 21 5 -7 7 13 22 10 11 -13 -14 14 -16 17 -18 -19 -20 -21 -22 -23 -24
leaf_value=-0.01983724763806918 -0.16291858460815833 0.31912477287597507 0.043866009966963194 -0.40146274516358627 -0.34111929692987603 0.27768599868397059 0.00015022891588602452 -0.28295998335182987 0.01126163499701153 0.21235319978059322 -0.27185612792043129 0.036876301141781538 0.25145505007212582 0.20186050588704332 -0.027766055877603332 0.084900392565913196 0.12273803814261078 0.31392602658851326 -0.017089492410616566 -0.072673358076647626 -0.42945187412256264 -0.10672521186735347 -0.24127804458260702
leaf_weight=24.333471353864297 2.3762882603332427 2.5434718355536452 2.017717485316096 4.8678274124395102 3.3206313191913059 1.6832898892462251 4.8504991084337297 2.3541723424568763 1.8874715641140931 3.7797314331401166 6.1274844049476114 10.549553042277692 11.671207546256481 4.2171928281895807 85.501592304906808 5.455999566242097 21.810620333068073 4.1342385364696383 1.3431615750305352 2.0750505197793245 3.1019081845879555 1.2201399039477108 2.0791916458401829
leaf_count=199 26 10 13 91 63 7 30 29 16 20 65 61 53 23 703 27 116 20 11 22 40 15 25
internal_value=0 0.0286373 -0.111209 -0.246242 0.0526258 -0.108437 -0.0147824 0.00236504 0.119829 -0.0836911 -0.0231771 -0.0765583 0.177676 -0.0237735 -0.0169726 0.0709678 0.0475529 0.183631 -0.247799 -0.247584 -0.313837 -0.342392 -0.121111
internal_weight=0 72.7306 10.6492 8.10568 62.0814 6.34708 140.571 112.561 20.4884 28.01 20.4568 16.677 16.5217 92.073 89.7188 55.7343 46.1441 9.59024 4.66379 7.55325 5.4782 6.08797 3.96666
internal_count=1685 572 129 119 443 81 1113 879 124 234 146 126 83 755 726 362 315 47 74 88 66 106 41
is_linear=0
shrinkage=0.3


Tree=36
num_leaves=26
num_cat=0
split_feature=9 6 11 14 6 10 11 9 13 7 5 7 7 10 10 2 7 6 11 6 14 2 14 11 8
split_gain=0.955925 4.45262 4.14448 3.85756 3.25427 2.91386 3.10489 2.32167 3.70253 1.96064 2.48395 2.11279 1.74156 2.81466 6.01861 3.8028 2.58161 4.09059 1.48318 1.17555 1.0981 0.30661 0.72012 0.184092 0.172242
threshold=0.115 205.50000000000003 139.70500000000001 14.500000000000002 266.50000000000006 38.750000000000007 140.70500000000001 0.095000000000000015 159.50000000000003 17.500000000000004 1.0000000180025095e-35 12.500000000000002 8.5000000000000018 38.805000000000007 38.115000000000009 127.50000000000001 7.5000000000000009 191.50000000000003 137.82500000000002 129.50000000000003 23.500000000000004 97.500000000000014 20.500000000000004 139.48000000000005 59.010000000000012
decision_type=2 2 2 2 2 2 2 2 2 2 2 2 2 2 2 2 2 2 2 2 2 2 2 2 2
left_child=7 2 3 -2 5 23 -7 12 -9 11 -11 -6 16 14 -14 -15 17 -1 -18 -4 -5 -10 -23 -3 -21
right_child=1 4 19 20 9 6 -8 8 21 10 -12 -13 13 15 -16 -17 18 -19 -20 24 -22 22 -24 -25 -26
leaf_value=0.080816106663515838 -0.42458034291593971 0.25937944591413786 -0.084445808962954547 0.18861315125924547 -0.082424951526605547 -0.15670157243656652 0.22375268856128377 0.17886736036773754 -0.22537879277621681 -0.31394618623338427 0.037768654829838183 0.20558003977710135 -0.036279643363914059 -0.0047132434820562922 -0.43704578494972474 0.19884686278505767 0.32581841917103022 -0.31060306934616766 0.09230042770753541 -0.49420691463902855 -0.010872380156253745 -0.55925306627472793 -0.26066199344423308 0.34587275775078119 -0.35797845951520407
leaf_weight=9.3795575620606524 1.6544361796695763 3.9406876154243964 1.2335289465263475 4.133231876883654 3.7302900293143484 3.4227855503559104 4.4282168750651181 1.6902487615589041 1.2990327868610618 3.1238291743211439 4.2876951284706593 5.9474215274676681 72.902212736895308 41.600042790989392 3.5361225507222107 10.305830967030486 4.0008439924567938 3.2305890461429962 6.3065529351588339 1.6962464987300339 6.2221258375793695 1.3679398072417828 1.5513066151179371 5.056406915653497 1.6457382761873303
leaf_count=49 24 22 15 24 54 42 31 15 12 52 29 44 573 303 46 86 15 32 38 25 55 20 21 20 38
internal_value=0 0.0356235 -0.0917746 0.000790313 0.0978835 0.191445 0.0578868 -0.0118133 -0.196299 0.00564264 -0.110473 0.094568 -0.00460703 -0.0182096 -0.0548195 0.0357033 0.0715711 -0.0194614 0.182941 -0.334739 0.0687502 -0.346626 -0.40058 0.307989 -0.427122
internal_weight=0 50.5226 16.5853 12.0098 33.9373 16.8481 7.851 157.17 5.90853 17.0892 7.41152 9.67771 151.262 128.344 76.4383 51.9059 22.9175 12.6101 10.3074 4.57551 10.3554 4.21828 2.91925 8.99709 3.34198
internal_count=1685 475 181 103 294 115 73 1210 68 179 81 98 1142 1008 619 389 134 81 53 78 79 53 41 42 63
is_linear=0
shrinkage=0.3


Tree=37
num_leaves=8
num_cat=0
split_feature=8 10 11 10 10 12 7
split_gain=1.03449 1.75905 1.47825 1.13762 3.41003 1.43294 0.94997
threshold=42.175000000000004 23.945000000000004 138.715 26.450000000000003 28.610000000000003 44.725000000000009 20.500000000000004
decision_type=2 2 2 2 2 2 2
left_child=2 -2 -1 -3 6 -6 -5
right_child=1 3 -4 4 5 -7 -8
leaf_value=0.17734995677123278 -0.21662084182375149 0.12808091958405932 -0.061864664548527404 -0.42285803324152416 -0.0083709129333423404 0.083854450845534653 -0.11530132644814474
leaf_weight=6.5800085589289647 3.481917278841137 5.9127324772998682 3.5953043065965176 2.1091222199611361 161.76222041295841 16.730713589116931 1.5816947512794284
leaf_count=33 32 34 31 29 1374 138 14
internal_value=0 -0.00533636 0.0928268 -0.0014252 -0.00562829 0.000273665 -0.291055
internal_weight=0 191.578 10.1753 188.096 182.184 178.493 3.69082
internal_count=1685 1621 64 1589 1555 1512 43
is_linear=0
shrinkage=0.3


Tree=38
num_leaves=14
num_cat=0
split_feature=8 13 1 13 13 13 12 6 1 8 8 13 14
split_gain=1.00047 2.34624 2.74406 2.6235 2.06487 2.05586 1.68924 2.63925 1.49238 2.57306 1.99648 1.42012 0.678101
threshold=54.715000000000011 202.50000000000003 4.5750000000000011 168.50000000000003 1588.0000000000002 1218.5000000000002 50.955000000000005 135.50000000000003 3.6350000000000002 63.705000000000005 56.245000000000012 414.50000000000006 16.500000000000004
decision_type=2 2 2 2 2 2 2 2 2 2 2 2 2
left_child=1 2 3 -1 5 8 7 -3 9 -2 -10 -9 -4
right_child=4 6 12 -5 -6 -7 -8 11 10 -11 -12 -13 -14
leaf_value=0.18290755155274152 0.17392799293122835 -0.15500292138186753 -0.46729974822422937 -0.18820860141841031 -0.26810291333414099 0.2405285340679415 -0.11192679360863522 0.1511257841062075 -0.17058402846679485 -0.1001656221703716 -0.01333626056038568 0.00075739183468864193 -0.18228920189759734
leaf_weight=3.6848733928054553 9.1134811434894782 3.5649116057902566 1.5932728139450776 3.2058922406286001 2.7920958865433922 2.9433481497690073 4.1649589482694855 24.925577200017869 7.7210877076722673 4.6578626134432843 123.48461539624259 7.3106215232983223 1.4217033447930587
leaf_count=16 52 35 21 28 21 16 34 131 69 47 1140 51 24
internal_value=0 0.0365058 -0.0941961 0.0102477 -0.0125139 -0.00768945 0.0689008 0.0899375 -0.0127288 0.0812217 -0.0225899 0.117025 -0.332904
internal_weight=0 49.8718 9.90574 6.89077 150.712 147.92 39.9661 35.8011 144.977 13.7713 131.206 32.2362 3.01498
internal_count=1685 340 89 44 1345 1324 251 217 1308 99 1209 182 45
is_linear=0
shrinkage=0.3


Tree=39
num_leaves=11
num_cat=0
split_feature=3 13 12 8 12 7 1 1 2 2
split_gain=0.880322 1.91832 0.937444 3.34853 2.30832 1.41057 1.06451 0.899377 0.268025 0.0143913
threshold=1.5000000000000002 378.50000000000006 67.280000000000015 65.645000000000024 57.045000000000009 5.5000000000000009 2.8150000000000004 7.3350000000000009 107.50000000000001 90.500000000000014
decision_type=2 2 2 2 2 2 2 2 2 2
left_child=2 8 4 7 5 -1 -7 9 -2 -4
right_child=1 -3 3 -5 -6 6 -8 -9 -10 -11
leaf_value=-0.23981873159826422 0.12547464180805204 -0.11772959155299098 -0.39675564288454801 0.10274890319777209 0.21492331568017234 0.1454642313790305 -0.0057083466545215086 -0.076584890425039881 0.25544593653167685 -0.35461916427251328
leaf_weight=2.2736445362679651 2.760381846688686 2.6086489828303456 1.1975157000124439 3.8069137153215706 4.4003015533089629 4.2979758293367913 170.44095078768441 1.3420275540556756 2.9584013216663152 1.8665958039928225
leaf_count=22 22 20 17 29 22 29 1456 11 21 36
internal_value=0 0.0954621 -0.00419744 -0.103332 0.000290666 -0.00504482 -0.00199002 -0.281387 0.19271 -0.371087
internal_weight=0 8.32743 189.626 8.21305 181.413 177.013 174.739 4.40614 5.71878 3.06411
internal_count=1685 63 1622 93 1529 1507 1485 64 43 53
is_linear=0
shrinkage=0.3


Tree=40
num_leaves=26
num_cat=0
split_feature=0 14 1 6 13 14 6 12 6 5 11 6 9 11 12 1 6 2 10 7 6 10 13 8 12
split_gain=0.850361 1.4448 2.20809 2.09994 1.91084 2.38587 2.33552 1.42782 1.23058 1.12105 1.78456 2.57188 2.7731 2.55901 3.95448 2.81286 1.32068 2.31063 1.73102 4.45003 2.08476 1.64817 1.07078 0.908356 0.014296
threshold=1.0000000180025095e-35 73.500000000000014 3.9050000000000007 284.50000000000006 297.50000000000006 34.500000000000007 393.50000000000006 0.55500000000000016 225.50000000000003 1.0000000180025095e-35 141.23000000000005 249.50000000000003 0.095000000000000015 140.94000000000003 13.305000000000001 3.4800000000000009 304.50000000000006 80.500000000000014 36.805000000000007 11.500000000000002 164.50000000000003 36.185000000000009 303.50000000000006 59.310000000000009 8.8050000000000015
decision_type=2 2 2 2 2 2 2 2 2 2 2 2 2 2 2 2 2 2 2 2 2 2 2 2 2
left_child=1 2 22 7 5 -4 -6 -3 -9 10 13 12 -12 15 -15 -2 18 -18 19 -11 -20 -19 24 -13 -1
right_child=9 3 4 -5 6 -7 -8 8 -10 16 11 23 -14 14 -16 -17 17 21 20 -21 -22 -23 -24 -25 -26
leaf_value=-0.34208793939270821 -0.34772859763738195 -0.1044217897587227 0.032278572865992151 -0.20665252560128572 -0.283219819572047 -0.33366995937690241 0.083182255232957955 0.057220685644093772 0.26544312467537357 0.10079772448110366 -0.31184620165669136 0.25660367610793161 0.13583177210823261 -0.48729168373528559 0.072593588712889082 -0.0055064449249282938 -0.096494827455941054 0.26752099514746652 0.14891686169572715 -0.17355158861046341 0.0022779319991463806 0.056175383350548863 -0.061525509180654608 0.073033665063343245 -0.38307047831170243
leaf_weight=1.8042802948039018 2.2679259274154893 2.7431219331920174 21.441189614415642 2.5791382333263746 5.0939756626030421 1.7330276865977783 2.2604982508346438 6.5803300328552705 4.1752664539963007 9.525705764070155 2.6175409802235654 4.9210144653916341 2.3754347068024799 2.7255397636326952 1.9459867216646669 46.10515574621968 3.7982320431619909 7.1038983818143588 13.450798802077768 12.054934034124015 24.839311031624675 6.2361959051340818 1.6601930479519067 4.7849907118361443 1.3312854974064974
leaf_count=42 25 31 279 35 115 65 17 57 17 46 44 22 20 40 10 352 27 25 52 88 138 34 27 55 22
internal_value=0 -0.0331657 -0.0670978 0.0413861 -0.0373698 0.004912 -0.170601 0.0887777 0.138052 0.0117521 -0.0163965 0.0761009 -0.098861 -0.0420281 -0.254064 -0.0215512 0.0365139 0.109944 0.0154942 -0.0524537 0.0537902 0.168722 -0.25634 0.166105 -0.359488
internal_weight=0 51.4023 35.3245 16.0779 30.5287 23.1742 7.35447 13.4987 10.7556 144.753 67.7436 14.699 4.99298 53.0446 4.67153 48.3731 77.0091 17.1383 59.8707 21.5806 38.2901 13.3401 4.79576 9.70601 3.13557
internal_count=1685 707 567 140 476 344 132 105 74 978 568 141 64 427 50 377 410 86 324 134 190 59 91 77 64
is_linear=0
shrinkage=0.3


Tree=41
num_leaves=16
num_cat=0
split_feature=3 6 2 13 10 12 2 12 4 8 1 6 13 10 2
split_gain=0.832776 1.58081 3.72939 2.06928 1.37102 2.57674 1.80872 1.58505 2.51829 1.42934 1.15378 1.76078 1.55597 1.13609 1.12236
threshold=1.0000000180025095e-35 407.50000000000006 104.50000000000001 287.50000000000006 43.790000000000006 0.32500000000000007 115.50000000000001 0.49500000000000005 1.0000000180025095e-35 62.240000000000002 3.6150000000000007 428.50000000000006 468.50000000000006 34.295000000000009 63.500000000000007
decision_type=2 2 2 2 2 2 2 2 2 2 2 2 2 2 2
left_child=1 4 -3 13 5 6 -1 -6 -9 -7 -2 12 14 -4 -12
right_child=10 2 3 -5 7 9 -8 8 -10 -11 11 -13 -14 -15 -16
leaf_value=-0.40220836291764633 -0.18622892190818266 -0.42912767528214002 0.0074945241930621728 0.13528669566028789 0.2298593822504072 0.01879928154443462 -0.056193047808319289 -0.22653959430987003 0.1040616550257186 -0.048707782976665788 0.25397618434814218 0.24374330200756372 -0.14952697582725888 -0.37031934285347373 0.036293883195578039
leaf_weight=2.4778623436577609 1.7951747663319135 2.6573838354088348 1.2995341848582032 3.8313229626510292 4.6382066193036726 89.249859237577766 3.0128148933872581 2.7721827845089111 8.2297797327628359 41.285836813913193 2.4412943143397667 4.0792279862798742 3.658599115908145 1.5960570255992932 16.810378867899999
leaf_count=40 21 32 11 25 28 660 49 48 53 456 13 24 34 32 159
internal_value=0 -0.00874156 -0.128229 -0.00936304 -0.00134831 -0.0110201 -0.212345 0.0827696 0.0207595 -0.00255186 0.0466587 0.062149 0.0298157 -0.200757 0.0638981
internal_weight=0 161.051 9.3843 6.72691 151.667 136.026 5.49068 15.6402 11.002 130.536 28.7847 26.9895 22.9103 2.89559 19.2517
internal_count=1685 1434 100 68 1334 1205 89 129 101 1116 251 230 206 43 172
is_linear=0
shrinkage=0.3


Tree=42
num_leaves=13
num_cat=0
split_feature=9 9 9 6 7 1 10 7 7 12 6 6
split_gain=0.678103 1.88611 1.74567 1.10724 1.00536 1.2496 2.6343 0.927241 0.77936 0.665587 0.11655 0.0384151
threshold=0.42500000000000004 0.29500000000000004 0.49500000000000005 273.50000000000006 3.5000000000000004 8.4150000000000009 34.295000000000009 12.500000000000002 33.500000000000007 0.99500000000000011 154.50000000000003 242.50000000000003
decision_type=2 2 2 2 2 2 2 2 2 2 2 2
left_child=1 4 -2 9 -1 7 -7 -6 10 -4 -3 -12
right_child=2 8 3 -5 5 6 -8 -9 -10 -11 11 -13
leaf_value=0.23769611213030037 0.26622493099845185 -0.43596030978489869 -0.006854212908448884 0.11473705052727527 -0.02798235751534623 -0.40303422827083724 0.064518774145903388 0.018370437964617427 -0.0070550428400415225 -0.30908514206965798 -0.23786521495721946 -0.33651727586166019
leaf_weight=1.5846307917963702 3.0032558719394711 0.71596270333975542 1.3055431719403716 2.7105948189273477 60.578002249181736 2.0971129424287929 2.2461735783144832 108.23955036420375 0.92037712037563313 1.3176999831339342 0.70568913035094716 0.715371775906533
leaf_count=7 17 11 15 26 525 32 22 953 8 26 22 21
internal_value=0 -0.00426064 0.0832805 -0.0197277 -0.000173594 -0.00235039 -0.161235 0.00173733 -0.237855 -0.15867 -0.337257 -0.287527
internal_weight=0 177.803 8.33709 5.33384 174.745 173.161 4.34329 168.818 3.0574 2.62324 2.13702 1.42106
internal_count=1685 1601 84 67 1539 1532 54 1478 62 41 54 43
is_linear=0
shrinkage=0.3


Tree=43
num_leaves=20
num_cat=0
split_feature=0 7 12 1 8 8 11 7 11 1 9 7 1 10 10 10 14 2 12
split_gain=0.63866 1.29627 1.97982 1.3015 1.22184 2.02151 2.0011 2.76729 1.76126 1.67487 2.23963 1.12982 2.23588 1.96141 1.85318 3.75239 2.61077 1.37061 0.754444
threshold=1.0000000180025095e-35 36.500000000000007 17.975000000000005 5.3250000000000011 67.530000000000015 67.125000000000014 139.03000000000003 32.500000000000007 140.42000000000004 6.9150000000000009 0.42500000000000004 12.500000000000002 3.8950000000000005 44.305000000000007 39.875000000000007 35.275000000000013 32.500000000000007 95.500000000000014 0.41500000000000004
decision_type=2 2 2 2 2 2 2 2 2 2 2 2 2 2 2 2 2 2 2
left_child=4 11 3 -3 5 6 7 -1 -8 10 18 12 17 -14 15 -13 -16 -2 -6
right_child=1 2 -4 -5 9 -7 8 -9 -10 -11 -12 14 13 -15 16 -17 -18 -19 -20
leaf_value=-0.18709376263738553 -0.012849520208096045 -0.10874889296787398 -0.27663131328045903 0.12930957948898944 -0.074051024119110645 0.30073198608002683 0.12064576922729747 0.10189217605342465 -0.044837371832023735 0.20912088372508117 0.22469243577088019 -0.016466024144050836 -0.062219734754382486 0.2069705399356202 0.024749445883199699 0.14623107898095497 -0.21758663577627227 0.22573145883614046 -0.35510066863382883
leaf_weight=11.157475387240991 3.8560137292370182 4.8170378860086185 3.4400499211624256 3.6202915944159031 1.1143900575116266 1.7918367786332954 10.556687958305703 4.0701446603052309 12.815166160697116 1.0043813381344078 0.89814026094973076 22.957667949143797 38.712962041725405 2.5996688064187756 18.606351855094548 28.71722931182012 5.0971246520639388 4.9479004563763738 3.7599510457948782
leaf_count=194 22 36 35 20 18 11 107 37 210 8 8 176 292 21 136 157 56 27 114
internal_value=0 0.00991553 -0.0848112 -0.0066027 -0.0305446 -0.010767 -0.0252272 -0.109852 0.0299087 -0.148423 -0.210633 0.0188809 -0.0160288 -0.0452805 0.0420911 0.0739494 -0.0273618 0.121236 -0.290846
internal_weight=0 137.372 11.8774 8.43733 47.1682 40.3913 38.5995 15.2276 23.3719 6.77686 5.77248 125.495 50.1165 41.3126 75.3784 51.6749 23.7035 8.80391 4.87434
internal_count=1685 978 91 56 707 559 548 231 317 148 140 887 362 313 525 333 192 49 132
is_linear=0
shrinkage=0.3


Tree=44
num_leaves=9
num_cat=0
split_feature=11 11 8 8 14 14 8 13
split_gain=0.93506 1.4251 1.075 2.60808 2.30588 1.32499 1.17629 0.92531
threshold=126.15000000000002 131.90500000000003 53.670000000000009 51.830000000000005 7.5000000000000009 5.5000000000000009 58.625000000000007 246.50000000000003
decision_type=2 2 2 2 2 2 2 2
left_child=-1 -2 3 4 -3 -4 -7 -5
right_child=1 2 5 7 -6 6 -8 -9
leaf_value=-0.26923303562187451 0.15247512045675643 0.28282591504547422 -0.29890160793382781 0.053283660251624995 -0.035134267518848621 -0.05829495691109015 0.0045613063621578543 0.25617359154115438
leaf_weight=1.1562822023406614 5.4498317008838049 2.2635108220856663 1.4618325193878252 3.1257362577598524 22.044504921417683 36.218945747008547 102.98749431426404 5.7347355247475207
leaf_count=17 38 11 18 30 185 298 1061 27
internal_value=0 0.00141503 -0.00332075 0.0452629 -0.00552649 -0.0147764 -0.0117927 0.184599
internal_weight=0 179.287 173.837 33.1685 24.308 140.668 139.206 8.86047
internal_count=1685 1668 1630 253 196 1377 1359 57
is_linear=0
shrinkage=0.3


Tree=45
num_leaves=21
num_cat=0
split_feature=12 1 14 10 9 2 10 13 1 9 8 8 4 14 2 11 8 14 1 6
split_gain=0.650426 1.81501 2.10417 1.841 1.70477 2.86556 1.64992 1.35875 2.06337 2.59704 1.24028 3.66283 2.87703 1.69014 1.90372 1.20018 1.07094 0.641048 0.611858 0.0168833
threshold=39.175000000000004 5.705000000000001 24.500000000000004 41.410000000000004 0.055000000000000007 92.500000000000014 34.005000000000003 150.50000000000003 5.5950000000000006 0.025000000000000005 62.240000000000002 62.845000000000006 1.0000000180025095e-35 344.00000000000006 123.50000000000001 140.56500000000003 62.845000000000006 68.500000000000014 6.6400000000000015 185.50000000000003
decision_type=2 2 2 2 2 2 2 2 2 2 2 2 2 2 2 2 2 2 2 2
left_child=1 10 3 15 7 -6 17 -2 9 -9 13 -12 -13 14 -1 -3 -10 -4 -8 -7
right_child=4 2 6 -5 5 19 18 8 16 -11 11 12 -14 -15 -16 -17 -18 -19 -20 -21
leaf_value=0.030395990054659375 0.28602344305767918 -0.34134147226715528 -0.27919002046074987 0.037153200191613923 0.11293370317642137 -0.40105089311287762 -0.028632128676919558 -0.26324748177770224 0.0463201431841005 0.15495643423512304 -0.38192110216623359 -0.12540382980368756 0.039552639900183317 0.21792686060864885 -0.13713060718865677 -0.080103225746342391 0.25610739138148148 -0.036050160856832381 0.15335688032512837 -0.34663455276070337
leaf_weight=80.105382551904768 2.7272973782382968 5.2391062531678489 1.9195625511929377 2.4483962864615023 2.2807662035338572 1.0841067935689355 2.6213326985016465 3.2105561557691535 4.6500024641863984 2.2894173804670572 2.5718227731995276 14.026675212720873 29.590210717433365 3.9648708682507268 6.6085263490676871 2.2678991947323084 4.1396919465623796 1.9852829072624443 4.5462554809637368 0.97432719962671388
leaf_count=565 13 72 26 21 18 20 29 48 40 20 31 243 290 20 96 26 21 19 35 32
internal_value=0 -0.00660267 -0.0886621 -0.188744 0.0491808 -0.118672 0.00132335 0.091982 0.0549476 -0.089166 0.00600465 -0.0340096 -0.0134954 0.0263866 0.0176287 -0.26242 0.145124 -0.155574 0.0867998 -0.375294
internal_weight=0 157.895 21.0278 9.9554 21.3562 4.3392 11.0724 17.017 14.2897 5.49997 136.867 46.1887 43.6169 90.6788 86.7139 7.50701 8.78969 3.90485 7.16759 2.05843
internal_count=1685 1473 228 119 212 70 109 142 129 68 1245 564 533 681 661 98 61 45 64 52
is_linear=0
shrinkage=0.3


Tree=46
num_leaves=17
num_cat=0
split_feature=3 12 13 2 2 13 13 6 8 6 13 10 2 2 13 14
split_gain=0.670694 1.06875 1.90466 1.55727 2.20191 1.02761 1.33139 1.74956 1.22737 1.04679 0.862863 3.94788 1.34861 0.707251 0.516352 0.111665
threshold=1.0000000180025095e-35 95.105000000000018 193.50000000000003 64.500000000000014 53.500000000000007 223.50000000000003 268.50000000000006 148.50000000000003 59.585000000000008 191.50000000000003 182.50000000000003 36.960000000000008 68.500000000000014 107.50000000000001 153.50000000000003 21.500000000000004
decision_type=2 2 2 2 2 2 2 2 2 2 2 2 2 2 2 2
left_child=1 3 -3 4 -1 8 -7 -8 -2 -9 11 -5 -12 -10 -15 -6
right_child=5 2 -4 10 15 6 7 9 13 -11 12 -13 -14 14 -16 -17
leaf_value=0.050725074352204629 -0.092665634075163331 0.1000295050937155 -0.42763254569156106 0.058551685722855129 -0.4067044178345941 -0.19287684001647826 -0.21008860228949827 0.22199657098485584 0.32915502649349548 0.029250571062495956 0.18178523797398063 -0.19562153556465819 0.0054090517286192394 -0.0017595640540084738 0.21780191619130868 -0.28491720774477347
leaf_weight=2.2404149384237817 1.6766925532720076 1.0763200519140803 1.4385333457030354 12.546904447022827 1.4723506234586241 2.6173146553337601 2.1765176164917639 3.4557015579193822 2.2869723103940487 9.5273086086381209 4.0386256445199242 9.7920293354545702 115.03986801527208 1.7530813352204861 2.1416816241107881 1.2552188521949572
leaf_count=26 32 12 30 119 24 39 25 22 10 82 18 184 997 22 19 24
internal_value=0 -0.00788964 -0.201801 -0.00455831 -0.169646 0.0446466 0.00471131 0.0388252 0.134986 0.080554 0.00124122 -0.0528624 0.011391 0.196732 0.118975 -0.350658
internal_weight=0 148.9 2.51485 146.385 4.96798 25.6353 17.7768 15.1595 7.85843 12.983 141.417 22.3389 119.078 6.18174 3.89476 2.72757
internal_count=1685 1434 42 1392 74 251 168 129 83 104 1318 303 1015 51 41 48
is_linear=0
shrinkage=0.3


Tree=47
num_leaves=16
num_cat=0
split_feature=8 0 2 6 13 2 7 1 10 9 6 9 2 10 8
split_gain=0.602556 0.651057 1.01502 2.03276 1.99713 1.53379 1.93169 1.59708 0.980306 2.33372 2.30743 2.30604 2.22551 0.92835 0.0184909
threshold=37.300000000000004 1.0000000180025095e-35 78.500000000000014 131.50000000000003 244.50000000000003 85.500000000000014 8.5000000000000018 5.2350000000000012 41.07500000000001 0.19500000000000003 300.50000000000006 0.19500000000000003 134.50000000000003 42.495000000000012 55.685000000000009
decision_type=2 2 2 2 2 2 2 2 2 2 2 2 2 2 2
left_child=-1 8 3 -3 -5 7 -7 -4 9 10 -2 12 -10 -13 -11
right_child=1 2 5 4 -6 6 -8 -9 11 14 -12 13 -14 -15 -16
leaf_value=0.12050427715128147 -0.0012639075259910267 0.1979149150873116 0.039675561318790263 -0.24595958820031905 -0.023932654942756558 0.1232182706137506 -0.011396765283403306 0.24516550789909725 -0.12053096264655723 -0.38140057684778383 -0.25843117689076139 0.36083484549077116 0.18613842048635754 0.073872073997595253 -0.3274527895998634
leaf_weight=3.6460444256663314 19.312704392301391 2.5046515129506615 10.440019229426978 5.2346010128967491 12.015813383040948 10.888209222117437 80.702897363982629 5.0508198905736199 8.652258563321082 1.3236643472919234 3.7497527141822493 2.0391721175983539 2.8251840500161043 2.0194001694326289 1.0067005102464461
leaf_count=28 315 15 56 50 90 79 649 24 126 32 94 15 28 27 57
internal_value=0 -0.00277143 0.00784481 -0.0546373 -0.0913062 0.0193718 0.00460606 0.106676 -0.0356708 -0.0719871 -0.043077 0.0236864 -0.045044 0.218052 -0.358096
internal_weight=0 167.766 126.837 19.7551 17.2504 107.082 91.5911 15.4908 40.9288 25.3928 23.0625 15.536 11.4774 4.05857 2.33036
internal_count=1685 1657 963 155 140 808 728 80 694 498 409 196 154 42 89
is_linear=0
shrinkage=0.3


Tree=48
num_leaves=19
num_cat=0
split_feature=1 1 2 1 2 2 12 3 7 14 6 6 6 8 13 3 6 13
split_gain=0.595305 1.94692 1.46165 1.25746 1.20894 1.74843 1.24184 0.772577 1.42878 1.96518 1.11713 6.66389 1.86791 0.634534 0.616202 0.298095 0.0136518 0.00180017
threshold=5.035000000000001 5.1950000000000012 137.50000000000003 5.0050000000000008 122.50000000000001 91.500000000000014 3.6650000000000005 1.0000000180025095e-35 13.500000000000002 18.500000000000004 185.50000000000003 167.50000000000003 189.50000000000003 53.095000000000006 200.50000000000003 1.0000000180025095e-35 169.50000000000003 232.50000000000003
decision_type=2 2 2 2 2 2 2 2 2 2 2 2 2 2 2 2 2 2
left_child=3 13 4 7 5 -3 -6 10 14 -10 11 -1 -12 -2 -9 -4 -15 -18
right_child=1 2 15 -5 6 -7 -8 8 9 -11 12 -13 -14 16 -16 -17 17 -19
leaf_value=0.012815329437849512 -0.036008960112785066 0.048509464172769225 -0.35766881516457161 0.24129278033486043 0.24315647007360994 -0.087005318935717529 -0.029848751805919043 0.056405104286962611 0.13532347068740525 -0.14911312138154398 0.23432803760631718 -0.37736376496048368 0.0061647521916290259 -0.39091585765486647 0.24687687271586151 -0.1419735621975057 -0.32686173276200575 -0.34838855718296619
leaf_weight=22.986769906303383 0.76524939574301187 16.477662542485632 1.1084327297285193 2.0931415205413932 3.4102162492345078 17.852345145074651 2.6765144930686802 2.4368649912066749 4.2936717579141241 4.4537250992143527 3.3756707822903982 4.7543161772191516 74.467404976836406 0.66558652464300427 4.1014793319627643 1.2019703433034008 0.62922158063156508 0.78679075790569186
leaf_count=195 11 156 26 14 26 208 41 25 42 46 21 62 705 10 34 17 28 18
internal_value=0 -0.0293857 -0.0133803 0.0107558 -0.000113836 -0.0219611 0.123108 0.00676348 0.0697995 -0.00949703 -0.00236244 -0.0540543 0.0160591 -0.269604 0.175887 -0.245455 -0.355479 -0.338823
internal_weight=0 45.574 42.7271 122.963 40.4167 34.33 6.08673 120.87 15.2857 8.7474 105.584 27.7411 77.8431 2.84685 6.53834 2.3104 2.0816 1.41601
internal_count=1685 541 474 1144 431 364 67 1130 147 88 983 257 726 67 59 43 56 46
is_linear=0
shrinkage=0.3


Tree=49
num_leaves=25
num_cat=0
split_feature=8 13 6 14 8 9 2 12 1 7 13 11 10 7 6 13 6 5 8 7 7 3 10 1
split_gain=0.604735 1.35227 2.60684 2.48926 2.33547 1.99339 1.5167 1.28326 1.2415 1.20241 1.1962 3.06063 4.00532 2.93818 2.02005 3.18134 2.5297 2.01788 2.54805 1.62608 1.16394 0.851164 0.843681 0.686764
threshold=54.715000000000011 244.50000000000003 211.50000000000003 15.500000000000002 51.830000000000005 0.045000000000000005 104.50000000000001 15.525000000000002 4.035000000000001 30.500000000000004 240.50000000000003 141.79500000000004 35.925000000000004 8.5000000000000018 269.50000000000006 269.50000000000006 283.50000000000006 1.0000000180025095e-35 58.410000000000004 8.5000000000000018 11.500000000000002 1.0000000180025095e-35 37.895000000000003 4.3750000000000009
decision_type=2 2 2 2 2 2 2 2 2 2 2 2 2 2 2 2 2 2 2 2 2 2 2 2
left_child=1 2 3 -1 6 8 7 -3 -4 -8 11 17 -13 -12 15 -15 -16 18 -2 -19 -6 -14 -22 -5
right_child=10 4 5 23 20 -7 9 -9 -10 -11 13 12 21 14 16 -17 -18 19 -20 -21 22 -23 -24 -25
leaf_value=0.0092581053100927579 -0.27570132336306813 -0.17804085510707146 0.10044765401512956 -0.56010566693945985 0.32300741784902381 0.20178339639380219 -0.011897155923576683 0.046781619870764492 -0.18337153220446925 0.27591634473100474 -0.38164292211694323 0.20056519388300181 -0.34557818297025977 -0.25304277434351713 0.21691951881061503 -0.029338368148236173 -0.011195960041858645 0.24202851536270809 0.021124898568618097 0.064615244729916102 0.024050858905103691 -0.061316093775214991 0.23121800775167289 -0.25706277841388103
leaf_weight=2.37702588061802 2.9999834795016822 5.1006762664765137 2.3486956690903735 1.3767612357623877 3.4826706703752262 4.3690203248988837 2.7519231531769028 4.1391946775838733 3.3879685309657361 2.4870439670048654 2.1628448610426849 2.0914385980577199 4.4633851571707055 6.8931304791476569 5.6931910216808346 33.658996441401541 18.899779166909866 5.9165868305135545 19.661087057203986 21.711852607084438 4.1694459402933717 1.203682303195819 3.0732875131070614 1.3167423300910739
leaf_count=21 41 41 15 19 14 30 32 33 45 13 30 26 122 84 28 346 193 31 261 163 38 20 13 26
internal_value=0 0.0317837 -0.0389656 -0.214496 0.074384 0.049107 -0.00421405 -0.0773269 -0.0671707 0.124734 -0.0104301 0.0211266 -0.154254 -0.0376453 -0.0262244 -0.0673641 0.041612 0.0481838 -0.0181704 0.102608 0.180488 -0.285201 0.111957 -0.411961
internal_weight=0 40.3805 15.1762 5.07053 25.2042 10.1057 14.4788 9.23987 5.73666 5.23897 125.356 58.048 7.75851 67.3079 65.1451 40.5521 24.593 50.2895 22.6611 27.6284 10.7254 5.66707 7.24273 2.6935
internal_count=1685 340 156 66 184 90 119 74 60 45 1345 664 168 681 651 430 221 496 302 194 65 142 51 45
is_linear=0
shrinkage=0.3


Tree=50
num_leaves=7
num_cat=0
split_feature=12 14 14 6 6 2
split_gain=0.67605 0.607457 0.839941 0.744283 1.81441 1.10244
threshold=-15.929999999999998 598.00000000000011 344.00000000000006 352.50000000000006 370.50000000000006 95.500000000000014
decision_type=2 2 2 2 2 2
left_child=-1 2 3 5 -5 -2
right_child=1 -3 -4 4 -6 -7
leaf_value=0.18762619191935723 0.019675814462177994 -0.15311739247766371 0.15280419701164108 0.18200724203351648 -0.0056690362236219366 -0.035882124109608178
leaf_weight=1.7113990383222688 57.126830754685216 2.3566584885120383 3.1856993027031413 6.4433094658888903 16.530181938374881 73.504441883982508
leaf_count=21 478 28 24 41 191 902
internal_value=0 -0.00193856 0.000333748 -0.00282843 0.046968 -0.0115859
internal_weight=0 159.147 156.79 153.605 22.9735 130.631
internal_count=1685 1664 1636 1612 232 1380
is_linear=0
shrinkage=0.3


Tree=51
num_leaves=26
num_cat=0
split_feature=9 6 11 2 8 11 6 10 9 8 12 8 10 11 1 1 1 10 1 1 6 2 11 8 13
split_gain=0.718647 1.79074 2.42653 2.36409 1.8863 1.78917 1.44866 1.43259 1.09705 1.01488 4.03947 2.97217 2.14187 1.90326 1.79009 1.65806 2.2077 1.53123 1.44277 1.29452 0.956037 0.630849 0.367129 0.20391 0.0740541
